Language model created by QuickLM on Wed Feb 24 22:55:24 EST 2016
Copyright (c) 1996-2010 Carnegie Mellon University and Alexander I. Rudnicky

The model is in standard ARPA format, designed by Doug Paul while he was at MITRE.

The code that was used to produce this language model is available in Open Source.
Please visit http://www.speech.cs.cmu.edu/tools/ for more information

The (fixed) discount mass is 0.5. The backoffs are computed using the ratio method.
This model based on a corpus of 185 sentences and 561 words

\data\
ngram 1=561
ngram 2=1399
ngram 3=1743

\1-grams:
-1.1167 </s> -0.2665
-1.1156 <s> -0.1620
-2.2688 A -0.2930
-3.0817 ABOUT -0.2901
-3.6838 ACCOMPANIES -0.3006
-3.3827 ACROSS -0.2913
-3.6838 ADULT -0.2665
-3.6838 AFRAID -0.2966
-3.6838 AGAIN -0.2665
-3.6838 AGAINST -0.2991
-3.6838 AGREE -0.2665
-3.6838 AHEAD -0.2972
-3.6838 AIR -0.2665
-3.2066 ALL -0.2638
-3.6838 ALLOWED -0.2966
-3.6838 ALMOST -0.3009
-3.3827 ALONE -0.2664
-3.6838 ALREADY -0.3008
-3.6838 ALSO -0.3008
-3.2066 ALWAYS -0.2985
-3.6838 AM -0.2975
-3.6838 AMONG -0.2913
-3.2066 AN -0.3008
-3.6838 ANCESTORS -0.3007
-2.0605 AND -0.2765
-3.0817 ANIMALS -0.2978
-3.2066 ANNOUNCED -0.2951
-3.6838 ANOTHER -0.3009
-3.6838 ANSWERED -0.2665
-3.6838 ANXIOUSLY -0.2972
-3.6838 ANYONE -0.3008
-3.6838 APPEARED -0.2665
-3.6838 APPROACH -0.3009
-3.0817 ARE -0.2989
-3.6838 AREA -0.3009
-3.6838 AREAS -0.2990
-3.0817 AROUND -0.2950
-3.6838 ARRIVED -0.2998
-3.6838 ARROW -0.2665
-2.6838 AS -0.2929
-3.6838 ASK -0.3009
-3.3827 ASKED -0.2665
-2.8387 AT -0.2872
-3.6838 AUTUMN -0.3009
-3.0817 AWAY -0.2618
-3.2066 BACK -0.2614
-2.5698 BE -0.2968
-3.6838 BECAUSE -0.2913
-3.2066 BEEN -0.3006
-2.9056 BEFORE -0.2526
-3.6838 BEGAN -0.2966
-3.6838 BESIDES -0.2990
-3.6838 BEST -0.2997
-2.2688 BLACK -0.2987
-3.6838 BLAME -0.3006
-3.6838 BLOCKED -0.3007
-3.3827 BOLD -0.2650
-3.6838 BOLDER -0.3009
-3.6838 BORDER -0.2665
-3.6838 BOUNDARIES -0.3007
-3.0817 BOUNDARY -0.2641
-3.6838 BOYSSCARFACE -0.3009
-3.6838 BREAK -0.2913
-3.6838 BREAKS -0.2913
-3.6838 BREATHING -0.2665
-3.6838 BRIGHT -0.3009
-3.6838 BROKE -0.3009
-3.2066 BUS -0.3007
-2.6046 BUT -0.2891
-3.6838 BUZZED -0.2998
-3.6838 BY -0.3004
-3.6838 CALLED -0.2966
-3.6838 CALMER -0.3009
-3.6838 CAMPAIGN -0.2997
-3.3827 CAN -0.3000
-3.6838 CANYON -0.2665
-3.6838 CAR -0.3009
-3.6838 CAREFULLY -0.3006
-3.6838 CATCH -0.3004
-3.6838 CATTLE -0.2972
-3.3827 CAUGHT -0.2992
-3.0817 CHAPTER -0.2928
-3.6838 CHEST -0.3009
-3.6838 CHEWING -0.2665
-3.6838 CHOOSE -0.2987
-3.6838 CHORUS -0.2665
-3.3827 CHOSEN -0.2656
-3.2066 CLEARING -0.2623
-3.6838 CLEARLY -0.2665
-3.6838 CLOSED -0.2913
-3.6838 COLLAR -0.3009
-3.6838 COME -0.3007
-3.6838 CONSIDERED -0.2995
-3.3827 CONTINUED -0.2905
-3.6838 COOL -0.3009
-3.6838 COOPERATE -0.2972
-3.0817 COULD -0.2995
-3.6838 COULDN'T -0.3008
-2.6838 COUNCIL -0.2605
-3.6838 COUNCILMAGNUS -0.3009
-3.3827 CROSS -0.2913
-3.6838 CROSSING -0.2913
-3.2066 CROWD -0.2938
-3.6838 DANGEROUS -0.2665
-3.6838 DAY -0.2998
-3.6838 DEAD -0.2665
-3.6838 DECISIONS -0.2665
-3.6838 DECLARED -0.2992
-3.6838 DEEPENED -0.2665
-3.6838 DETERMINED -0.2665
-3.6838 DID -0.3004
-3.3827 DIDN'T -0.3007
-3.6838 DIFFERENT -0.3009
-3.6838 DISAPPOINTED -0.3009
-3.6838 DISTANCE -0.3009
-2.9056 DO -0.2615
-3.6838 DOESN'T -0.3003
-3.6838 DOING -0.3008
-3.6838 DON'T -0.3006
-3.2066 DOWN -0.2558
-3.6838 DRIVER -0.3009
-3.6838 EACH -0.3008
-3.3827 EARS -0.2665
-3.6838 EASTERN -0.3009
-3.6838 EASY -0.2997
-3.6838 EAT -0.3006
-3.6838 EATING -0.2665
-3.3827 ECHOED -0.3008
-3.6838 EERIE -0.3008
-3.6838 ELECTION -0.2913
-3.6838 ELK -0.3009
-3.6838 ENGINE -0.3009
-3.2066 ENOUGH -0.2965
-3.6838 ESCAPE -0.3002
-3.6838 EVEN -0.3007
-3.6838 EVENING -0.2665
-3.6838 EVER -0.3008
-3.6838 EVERYONE -0.3007
-3.6838 EXPERIENCE -0.2966
-3.6838 EXTRA -0.3009
-3.6838 EYE -0.2665
-3.0817 EYES -0.2660
-3.3827 FACE -0.2663
-3.3827 FACED -0.2897
-3.6838 FADE -0.2665
-3.6838 FAST -0.3001
-3.6838 FATHER -0.3006
-3.6838 FEELING -0.3009
-3.2066 FEET -0.2658
-3.2066 FELT -0.3002
-3.6838 FEW -0.2991
-3.3827 FINALLY -0.2985
-3.2066 FIND -0.2883
-2.0817 FIRE -0.2502
-3.6838 FIRE'S -0.3009
-3.6838 FOLLOW -0.2913
-3.0817 FOOD -0.2654
-2.5077 FOR -0.2804
-3.6838 FOREST -0.2665
-3.6838 FORWARD -0.2966
-3.3827 FOUND -0.2985
-3.3827 FOUR -0.2976
-3.6838 FREEDOMS -0.3009
-3.6838 FRIENDLY -0.2665
-2.7295 FROM -0.2873
-3.3827 FRONT -0.2643
-3.0817 FROST -0.2988
-3.6838 FULL -0.2990
-3.6838 FUR -0.2665
-3.3827 GASPED -0.2969
-3.6838 GENTLY -0.3009
-3.6838 GET -0.3009
-3.6838 GETTING -0.3009
-3.6838 GLANCED -0.3004
-3.6838 GLARED -0.3004
-3.3827 GO -0.2910
-3.6838 GOING -0.2966
-3.6838 GONE -0.2665
-3.2066 GOOD -0.3003
-3.6838 GOODNESS -0.2992
-3.6838 GRASS -0.2665
-2.6838 GRAY -0.3001
-3.3827 GREAT -0.2999
-3.6838 GROWLING -0.2998
-3.6838 GRUMBLE -0.2665
-3.6838 GUESS -0.3009
-2.8387 HAD -0.2999
-3.6838 HAND -0.3009
-2.7807 HAVE -0.2956
-2.3220 HE -0.2956
-3.2066 HE'S -0.3002
-3.2066 HEAD -0.2990
-3.3827 HEAR -0.2994
-3.6838 HEARD -0.3009
-3.6838 HEART -0.2995
-3.6838 HELD -0.3001
-3.6838 HELP -0.2665
-2.4533 HER -0.2539
-3.2066 HERE -0.2663
-3.6838 HIDDEN -0.3006
-3.6838 HILL -0.3007
-2.8387 HIM -0.2616
-2.6838 HIS -0.2995
-3.6838 HISSED -0.3004
-3.6838 HOME -0.3006
-3.3827 HOW -0.3009
-3.2066 HOWL -0.3005
-3.6838 HOWLED -0.3001
-3.6838 HOWLS -0.3009
-3.6838 HUMAN -0.3009
-3.6838 HUNGRY -0.2665
-3.3827 HUNT -0.3001
-3.6838 HUNTER -0.2972
-2.3827 I -0.2956
-3.3827 I'LL -0.2994
-2.9848 I'M -0.2995
-3.6838 I'VE -0.3008
-2.7295 IF -0.2933
-3.6838 IMPORTANT -0.3005
-2.5376 IN -0.2851
-3.6838 INCLUDING -0.3009
-3.6838 INSECTS -0.3009
-3.6838 INSISTED -0.2665
-3.6838 INSTANTLY -0.3009
-3.6838 INTELLIGENT -0.2665
-3.6838 INTEND -0.2966
-3.3827 INTO -0.2912
-3.6838 INVOLVED -0.2999
-2.9848 IS -0.2977
-3.0817 IT -0.2992
-3.6838 JOKE -0.2665
-3.6838 JUST -0.3007
-3.3827 KIND -0.2951
-3.6838 KINDNESS -0.2972
-3.6838 KNEW -0.2999
-3.0817 KNOW -0.2863
-3.6838 LAKE -0.2665
-3.6838 LAND -0.2665
-3.6838 LANKY -0.3003
-3.6838 LARGE -0.2991
-3.6838 LATE -0.2997
-3.6838 LAUGHED -0.2665
-3.6838 LAY -0.3008
-3.0817 LEAD -0.2912
-2.6424 LEADER -0.2625
-3.6838 LEADERS -0.2665
-3.6838 LEAVE -0.2913
-3.6838 LEAVES -0.2665
-3.6838 LED -0.2995
-3.6838 LEFT -0.2913
-3.6838 LIGHTNINGSHAPED -0.3009
-3.0817 LIKE -0.2526
-3.6838 LISTENED -0.2665
-2.9056 LITTLE -0.3005
-3.0817 LONG -0.2969
-3.3827 LOOK -0.2996
-2.9848 LOOKED -0.2995
-3.6838 LOOKING -0.3009
-3.2066 LOUD -0.2964
-3.6838 LOUDEST -0.2665
-3.6838 MADE -0.2995
-2.8387 MAGNUS -0.2644
-3.6838 MAGNUS'S -0.3009
-3.3827 MAKE -0.3006
-3.6838 MAKING -0.3007
-3.3827 MANY -0.3009
-3.6838 MARK -0.2998
-3.6838 MATTER -0.3009
-2.9848 ME -0.2662
-3.6838 MEAT -0.2665
-3.6838 MEET -0.3009
-3.3827 MEETING -0.2560
-3.2066 MIGHT -0.2991
-3.6838 MILE -0.2997
-3.2066 MOLLIE -0.2991
-3.0817 MOLLIE'S -0.3003
-3.6838 MOLLIES -0.2665
-2.9848 MOONDANCE -0.2959
-3.6838 MORE -0.2665
-3.3827 MORNING -0.2665
-3.6838 MOST -0.3009
-3.6838 MOUSE -0.2665
-3.3827 MOVE -0.3003
-3.2066 MUST -0.2997
-3.2066 MY -0.3000
-3.3827 NARROWED -0.3001
-3.6838 NATIONAL -0.3000
-3.6838 NEARBY -0.3009
-3.6838 NECESSARY -0.2997
-2.9848 NEED -0.2943
-3.3827 NEEDED -0.2966
-3.6838 NEEDS -0.2966
-3.6838 NERVOUS -0.2665
-3.3827 NEVER -0.3005
-3.0817 NEW -0.3000
-3.0817 NEXT -0.2963
-3.3827 NIGHT -0.2965
-3.6838 NO -0.3009
-3.3827 NODDED -0.2655
-2.8387 NOT -0.2862
-3.3827 NOTICED -0.2963
-3.6838 NOW -0.2990
-3.6838 NUZZLED -0.3005
-2.3220 OF -0.2855
-3.6838 OFF -0.3009
-3.6838 OLD -0.3009
-3.3827 OLDER -0.2971
-2.8387 ON -0.2541
-3.3827 ONCE -0.2874
-2.9848 ONE -0.2982
-3.6838 ONES -0.3008
-3.3827 ONLY -0.2997
-3.3827 ONTO -0.2912
-3.6838 OPPONENT -0.2665
-3.2066 OR -0.3006
-3.2066 OTHER -0.2946
-3.3827 OTHERS -0.3005
-3.6838 OUR -0.3007
-3.3827 OUT -0.2987
-3.6838 OUTSIDE -0.2913
-3.6838 OVERWHELMING -0.2999
-3.3827 OWN -0.3002
-3.6838 PACED -0.3009
-2.7807 PACK -0.2593
-3.2066 PACKS -0.2993
-2.6424 PARK -0.2641
-3.6838 PASSENGERS -0.3009
-3.6838 PASSING -0.3004
-3.6838 PAST -0.2913
-3.6838 PASTURE -0.2665
-3.6838 PATH -0.2665
-3.6838 PEOPLE -0.2665
-3.6838 PINE -0.3008
-3.6838 PLACE -0.3008
-3.6838 PLEASE -0.3004
-3.6838 POINTED -0.3009
-3.6838 POUNCING -0.3004
-3.6838 POUNDING -0.2999
-3.6838 PRIDE -0.2665
-3.3827 PROUD -0.2966
-3.6838 PULLED -0.3001
-3.6838 PUNISHED -0.2665
-2.9848 PUPS -0.2657
-3.6838 PUSHED -0.3001
-3.3827 QUESTIONS -0.2662
-3.6838 QUICK -0.3008
-3.3827 QUIET -0.2990
-3.6838 RACE -0.3009
-3.3827 RACED -0.3006
-3.6838 RADIOTRACKING -0.3009
-3.6838 RAGGEDY -0.3009
-3.6838 RAISED -0.2995
-3.6838 RAN -0.3009
-3.6838 RANCHERS -0.3006
-3.6838 RANCHERS' -0.3009
-2.8387 RANGERS -0.2641
-3.6838 REACT -0.2966
-3.6838 READY -0.2966
-3.6838 REALLY -0.3006
-3.6838 REASSURED -0.3004
-3.6838 RELIEF -0.2665
-3.6838 REMOVED -0.3002
-3.3827 REPLACE -0.3001
-3.6838 RESPONSIBILITIES -0.2665
-3.6838 RESPONSIBLE -0.2665
-3.6838 RIDGE -0.3004
-3.6838 RIGHTS -0.2972
-3.3827 ROAD -0.2996
-3.6838 RULE -0.3007
-2.9056 RULES -0.2619
-3.3827 RUN -0.2996
-3.6838 RUSHED -0.3008
-3.6838 SAD -0.3009
-3.6838 SADLY -0.2665
-2.6046 SAID -0.2618
-3.3827 SAME -0.3008
-3.6838 SANG -0.3007
-2.9848 SAW -0.2895
-3.6838 SAY -0.2972
-3.6838 SCARFACE -0.3009
-3.6838 SCARY -0.2665
-3.6838 SCAVENGERS -0.2665
-3.6838 SCENT -0.2995
-3.3827 SCOWL -0.3009
-3.6838 SCOWLING -0.3007
-3.6838 SEARCHED -0.2997
-3.6838 SEE -0.3009
-3.6838 SEEMED -0.2665
-3.6838 SEES -0.3009
-3.6838 SEPARATE -0.3009
-3.6838 SEPARATED -0.2975
-3.6838 SEVERAL -0.3009
-3.6838 SHALL -0.3009
-3.6838 SHAME -0.3009
-3.6838 SHARE -0.3009
-2.3220 SHE -0.2922
-3.2066 SHE'S -0.3002
-3.6838 SHEEP -0.2998
-3.6838 SHOCKED -0.2665
-3.3827 SHOOK -0.2986
-3.2066 SHOULD -0.3000
-3.6838 SICKSHE -0.3009
-3.6838 SIDE -0.2990
-3.3827 SIGHED -0.2994
-3.6838 SIGHING -0.3009
-3.6838 SILLY -0.3008
-2.0927 SILVER -0.2973
-3.6838 SKILLS -0.3009
-3.6838 SLOPE -0.3007
-3.6838 SMALL -0.2999
-3.6838 SMILED -0.3009
-2.9848 SMUDGE -0.2623
-3.6838 SNAPPED -0.3004
-3.6838 SNARLED -0.2972
-3.6838 SNEERED -0.2665
-3.6838 SNORTED -0.3001
-3.0817 SO -0.2907
-3.6838 SOFTENED -0.3001
-3.6838 SOFTLY -0.2972
-2.9848 SOME -0.2980
-3.6838 SOMEONE -0.3009
-3.3827 SOON -0.2643
-3.6838 SORRY -0.3005
-3.2066 SOUND -0.2945
-3.6838 SPARKLING -0.3003
-3.6838 SPOKE -0.3009
-3.6838 SPRINTED -0.3009
-3.6838 STARE -0.2665
-3.6838 STARSHE'S -0.2987
-3.3827 STARTED -0.2966
-3.6838 STARTLED -0.3004
-3.6838 STAY -0.3009
-3.6838 STEAL -0.3007
-3.3827 STEPPED -0.3007
-3.3827 STILL -0.3005
-3.2066 STOOD -0.3003
-3.0817 STOPPED -0.2951
-2.4285 STREAK -0.2565
-3.2066 STREAK'S -0.3006
-2.9848 STRONG -0.2959
-3.3827 STRONGER -0.2624
-3.3827 STRONGEST -0.2661
-3.3827 SURE -0.3002
-3.6838 SURVIVAL -0.2665
-3.6838 SWIFTLY -0.3007
-3.6838 SWUNG -0.2913
-2.6838 TAIL -0.2632
-3.6838 TAKE -0.3007
-3.6838 TAKING -0.3009
-3.6838 TALK -0.2966
-3.6838 TALL -0.2972
-3.3827 TAUGHT -0.2661
-3.6838 TEAMWORK -0.2665
-3.6838 THAN -0.2990
-3.6838 THANK -0.3009
-2.6046 THAT -0.2822
-3.3827 THAT'S -0.3000
-1.6544 THE -0.2818
-3.0817 THEIR -0.2998
-2.8387 THEM -0.2644
-2.6838 THEN -0.2577
-3.2066 THERE -0.2653
-3.2066 THERE'S -0.3004
-2.9848 THEY -0.3001
-3.6838 THING -0.2665
-3.2066 THINK -0.2983
-3.6838 THINKING -0.3007
-3.6838 THINLY -0.2998
-3.6838 THIS -0.3009
-3.3827 THOUGHT -0.2661
-3.6838 THREE -0.2991
-3.3827 THROUGH -0.2913
-3.6838 TILTED -0.2995
-3.3827 TIME -0.2617
-3.6838 TIMES -0.3005
-1.9936 TO -0.2705
-3.3827 TOGETHER -0.2560
-2.9848 TOLD -0.2956
-3.6838 TOLERATED -0.2913
-3.6838 TOMORROW -0.3009
-3.3827 TOO -0.2661
-3.6838 TOOK -0.3007
-3.6838 TORE -0.3009
-3.6838 TOURISTS -0.3009
-3.0817 TOWARD -0.2873
-3.2066 TREES -0.2659
-3.6838 TROTTING -0.3007
-3.6838 TROUBLE -0.3002
-3.6838 TROUBLEMAKER -0.2665
-3.3827 TRUST -0.2981
-3.6838 TRYING -0.2966
-3.6838 TUMBLING -0.2972
-3.2066 TURN -0.2999
-3.2066 TURNED -0.2962
-3.2066 TWO -0.2999
-3.6838 UNDERSTANDING -0.2665
-3.6838 UNTIL -0.3006
-3.2066 UP -0.2510
-3.0817 US -0.2649
-3.6838 USSILVER -0.2974
-3.2066 VERY -0.3006
-3.6838 VIBRATED -0.2665
-3.3827 VOICE -0.2665
-2.9848 VOTE -0.2610
-3.6838 VOTED -0.2997
-3.3827 WAIT -0.2952
-3.6838 WAITED -0.2997
-2.9848 WANT -0.2942
-3.6838 WARM -0.2972
-3.6838 WARNED -0.2665
-2.4533 WAS -0.2867
-3.6838 WASN'T -0.3009
-3.6838 WATCHED -0.3007
-3.0817 WAY -0.2955
-2.7295 WE -0.2990
-3.3827 WE'RE -0.2911
-3.6838 WEARY -0.2990
-3.6838 WELL -0.3002
-3.6838 WELLREHEARSED -0.3009
-3.0817 WERE -0.2999
-2.7807 WHAT -0.2925
-3.6838 WHATEVER -0.2992
-3.0817 WHEN -0.2980
-3.2066 WHERE -0.2962
-3.6838 WHICH -0.2991
-3.6838 WHIMPERED -0.3008
-3.6838 WHISPERED -0.2966
-3.2066 WHITE -0.3008
-3.2066 WHO -0.2982
-3.2066 WHY -0.2987
-3.3827 WILD -0.3007
-2.7295 WILL -0.2981
-3.6838 WILLING -0.2966
-3.6838 WIND -0.2972
-3.6838 WINGED -0.3009
-3.6838 WINTER -0.2665
-3.3827 WISE -0.2663
-2.7807 WITH -0.2860
-3.6838 WITHIN -0.2913
-3.6838 WITHOUT -0.3001
-2.5077 WOLF -0.2616
-2.3615 WOLVES -0.2535
-3.6838 WON'T -0.2990
-3.6838 WONDERING -0.2913
-3.3827 WORDS -0.2653
-3.6838 WORK -0.3009
-3.6838 WORKING -0.3003
-3.6838 WORRIED -0.2665
-3.0817 WOULD -0.2990
-3.6838 WOULDN'T -0.3007
-3.6838 YELLED -0.2997
-2.7807 YELLOWSTONE -0.2633
-3.6838 YESTERDAY -0.2665
-3.6838 YIPPING -0.2972
-2.3615 YOU -0.2537
-3.6838 YOU'LL -0.3003
-3.2066 YOU'RE -0.3004
-3.0817 YOUNG -0.2931
-3.6838 YOUNGER -0.3006
-2.9848 YOUR -0.2994
-3.6838 YOUSILVER -0.2974

\2-grams:
-0.6032 </s> </s> -0.3010
-2.8692 <s> </s> -0.3010
-0.6021 <s> <s> -0.1761
-2.5682 <s> A -0.2752
-2.8692 <s> ALL -0.2218
-2.3921 <s> AND -0.2744
-2.8692 <s> ANIMALS -0.2430
-2.8692 <s> ARE -0.2430
-2.8692 <s> AS -0.2788
-2.8692 <s> BECAUSE 0.0000
-2.8692 <s> BESIDES 0.0000
-1.7901 <s> BLACK -0.0164
-2.0241 <s> BUT -0.1249
-2.2672 <s> CHAPTER 0.0000
-2.8692 <s> DO -0.2632
-2.8692 <s> EVEN 0.0000
-2.8692 <s> EVERYONE 0.0000
-2.8692 <s> EYES -0.2430
-2.8692 <s> FINALLY -0.1761
-2.1703 <s> GRAY 0.0000
-1.8692 <s> HE -0.1434
-2.8692 <s> HE'S -0.2218
-2.8692 <s> HER -0.2881
-2.5682 <s> HIS -0.2041
-1.7901 <s> I -0.0969
-2.3921 <s> I'M -0.1461
-2.8692 <s> I'VE 0.0000
-2.5682 <s> IF -0.1597
-2.8692 <s> IT -0.2430
-2.5682 <s> LITTLE -0.0669
-2.2672 <s> MAGNUS -0.1549
-2.8692 <s> MAKING 0.0000
-2.8692 <s> MOLLIE'S 0.0000
-2.5682 <s> MOONDANCE -0.2041
-2.8692 <s> MY -0.2218
-2.8692 <s> NOW 0.0000
-1.8692 <s> SHE -0.1296
-2.5682 <s> SHE'S -0.1249
-2.8692 <s> SIGHING 0.0000
-1.5470 <s> SILVER -0.0110
-2.8692 <s> SO -0.2430
-2.8692 <s> SOME -0.2553
-2.8692 <s> SOON -0.1761
-2.8692 <s> SORRY 0.0000
-2.8692 <s> THANK 0.0000
-2.5682 <s> THAT -0.2632
-2.8692 <s> THAT'S -0.1761
-1.5905 <s> THE -0.2283
-2.0911 <s> THEN -0.1461
-2.8692 <s> THERE -0.2218
-2.5682 <s> THERE'S -0.1249
-2.5682 <s> THEY -0.2041
-2.8692 <s> TRYING 0.0000
-2.8692 <s> TUMBLING 0.0000
-2.8692 <s> TURN -0.1249
-2.8692 <s> TWO -0.2218
-2.5682 <s> WE -0.2499
-2.5682 <s> WE'RE 0.0000
-2.8692 <s> WELL 0.0000
-2.3921 <s> WHAT -0.2109
-2.8692 <s> WHERE -0.2218
-2.8692 <s> WHO -0.2218
-2.5682 <s> WHY -0.1249
-2.8692 <s> WOLVES -0.2906
-2.3921 <s> YOU -0.2688
-2.8692 <s> YOU'RE -0.2218
-2.5682 <s> YOUR -0.2041
-1.7160 A BLACK -0.2926
-1.7160 A BOLD -0.1761
-1.7160 A BUS -0.2218
-1.7160 A CAR 0.0000
-1.7160 A FEW 0.0000
-1.7160 A GOOD -0.2218
-1.4150 A GREAT 0.0000
-1.7160 A HUMAN 0.0000
-1.7160 A LEADER -0.2374
-1.4150 A LONG 0.0000
-1.7160 A MOUSE 0.0000
-1.7160 A NEARBY 0.0000
-1.4150 A NEW 0.0000
-1.7160 A PLACE 0.0000
-1.7160 A RADIOTRACKING 0.0000
-1.7160 A SAD 0.0000
-1.7160 A SHAME 0.0000
-1.7160 A STRONG -0.2041
-1.7160 A TROUBLEMAKER 0.0000
-1.7160 A WELLREHEARSED 0.0000
-1.7160 A WISE -0.1761
-1.4150 A WOLF -0.2711
-0.9031 ABOUT ONE -0.0792
-0.9031 ABOUT THE -0.2990
-0.6021 ABOUT WHAT -0.2430
-0.3010 ACCOMPANIES ME -0.0792
-0.3010 ACROSS THE -0.2949
-0.3010 ADULT </s> -0.1765
-0.3010 AFRAID TO -0.2966
-0.3010 AGAIN </s> -0.1765
-0.3010 AGAINST YOU -0.2906
-0.3010 AGREE </s> -0.1765
-0.3010 AHEAD AND -0.2958
-0.3010 AIR </s> -0.1765
-0.7782 ALL </s> -0.1765
-0.7782 ALL OF -0.1568
-0.7782 ALL STRONG -0.2553
-0.3010 ALLOWED TO -0.2966
-0.3010 ALMOST STEPPED -0.1761
-0.6021 ALONE </s> -0.1765
-0.6021 ALONE SCARFACE 0.0000
-0.3010 ALREADY THERE -0.2218
-0.3010 ALSO VERY -0.1249
-0.7782 ALWAYS BLACK -0.1165
-0.7782 ALWAYS LISTENED 0.0000
-0.7782 ALWAYS WILLING 0.0000
-0.3010 AM SILVER -0.0110
-0.3010 AMONG THE -0.2845
-0.7782 AN ADULT 0.0000
-0.7782 AN ARROW 0.0000
-0.7782 AN OPPONENT 0.0000
-0.3010 ANCESTORS WERE -0.2430
-1.6232 AND BLACK -0.0621
-1.9243 AND BOLD -0.1761
-1.9243 AND BOLDER 0.0000
-1.9243 AND DECLARED 0.0000
-1.9243 AND EERIE 0.0000
-1.9243 AND FACED -0.1761
-1.9243 AND FREEDOMS 0.0000
-1.9243 AND FULL 0.0000
-1.9243 AND GO -0.1761
-1.9243 AND GROWLING 0.0000
-1.9243 AND HEARD 0.0000
-1.9243 AND HER -0.2747
-1.9243 AND I -0.2900
-1.9243 AND I'M -0.2041
-1.9243 AND LANKY 0.0000
-1.9243 AND LEAVE 0.0000
-1.6232 AND LOUD -0.1249
-1.9243 AND NARROWED 0.0000
-1.9243 AND NO 0.0000
-1.9243 AND NOTICED -0.1761
-1.9243 AND OVERWHELMING 0.0000
-1.9243 AND POUNCING 0.0000
-1.9243 AND RAISED 0.0000
-1.9243 AND SAID -0.1996
-1.9243 AND SEARCHED 0.0000
-1.9243 AND SHARE 0.0000
-1.9243 AND SHEEP 0.0000
-1.9243 AND SIGHED -0.1761
-1.9243 AND STEPPED -0.1761
-1.9243 AND STRONG -0.2041
-1.9243 AND TEAMWORK 0.0000
-1.6232 AND THE -0.2824
-1.9243 AND THEN -0.2788
-1.9243 AND VERY -0.2218
-1.9243 AND WAIT -0.1761
-1.4472 AND WHITE 0.0000
-1.9243 AND YOU -0.2906
-0.9031 ANIMALS IN -0.2156
-0.9031 ANIMALS MUST -0.2218
-0.9031 ANIMALS NOT -0.2688
-0.9031 ANIMALS THAT -0.2825
-0.7782 ANNOUNCED AT -0.1963
-0.7782 ANNOUNCED TO -0.2783
-0.7782 ANNOUNCED WE -0.2762
-0.3010 ANOTHER FACE -0.1761
-0.3010 ANSWERED </s> -0.1765
-0.3010 ANXIOUSLY AND -0.2958
-0.3010 ANYONE WHO -0.2218
-0.3010 APPEARED </s> -0.1765
-0.3010 APPROACH PEOPLE 0.0000
-0.9031 ARE NECESSARY 0.0000
-0.9031 ARE OUR 0.0000
-0.9031 ARE PASSING 0.0000
-0.9031 ARE YOU -0.2906
-0.3010 AREA UNTIL 0.0000
-0.3010 AREAS OF -0.1568
-0.9031 AROUND AND -0.2958
-0.9031 AROUND AT -0.1963
-0.9031 AROUND HER -0.2747
-0.9031 AROUND PLEASE 0.0000
-0.3010 ARRIVED IN -0.2156
-0.3010 ARROW </s> -0.1765
-1.3010 AS A -0.2926
-1.3010 AS AN -0.2218
-1.3010 AS FAST 0.0000
-1.3010 AS FOUR -0.1761
-1.0000 AS HE -0.2817
-1.3010 AS IF -0.2762
-1.3010 AS QUIET -0.1761
-1.0000 AS SHE -0.2817
-0.3010 ASK QUESTIONS -0.1761
-0.3010 ASKED </s> -0.1765
-0.6690 AT SILVER -0.0110
-1.1461 AT SOME -0.2553
-0.6690 AT THE -0.2738
-0.3010 AUTUMN LEAVES 0.0000
-0.9031 AWAY </s> -0.1765
-0.6021 AWAY FROM -0.1919
-0.9031 AWAY SILVER -0.0110
-0.7782 BACK </s> -0.1765
-0.7782 BACK TO -0.2966
-0.7782 BACK UP -0.2218
-1.1139 BE A -0.2840
-1.4150 BE AN -0.2218
-1.4150 BE CHOSEN -0.1761
-1.4150 BE LATE 0.0000
-1.4150 BE PROUD 0.0000
-1.4150 BE PUNISHED 0.0000
-1.4150 BE REMOVED 0.0000
-1.4150 BE SMALL 0.0000
-1.4150 BE STRONG -0.2553
-1.4150 BE STRONGER -0.1761
-1.4150 BE TROUBLE 0.0000
-1.4150 BE WILD 0.0000
-0.3010 BECAUSE THE -0.2908
-0.7782 BEEN HERE -0.2218
-0.7782 BEEN THINKING 0.0000
-0.7782 BEEN WONDERING 0.0000
-0.7782 BEFORE </s> -0.1765
-1.0792 BEFORE HE -0.2915
-0.7782 BEFORE THE -0.2908
-1.0792 BEFORE THEN -0.2788
-0.3010 BEGAN TO -0.2966
-0.3010 BESIDES SHE -0.2915
-0.3010 BEST FOR -0.2553
-1.1139 BLACK FROST 0.0000
-1.7160 BLACK LIGHTNINGSHAPED 0.0000
-0.4607 BLACK STREAK 0.0000
-1.2389 BLACK STREAK'S 0.0000
-0.3010 BLAME ME -0.0792
-0.3010 BLOCKED THEIR -0.2430
-0.6021 BOLD </s> -0.1765
-0.6021 BOLD WOLF -0.2711
-0.3010 BOLDER THAN 0.0000
-0.3010 BORDER </s> -0.1765
-0.3010 BOUNDARIES WHEN -0.2430
-0.6021 BOUNDARY </s> -0.1765
-0.9031 BOUNDARY OF -0.1568
-0.9031 BOUNDARY ONTO -0.1761
-0.3010 BOYSSCARFACE SNEERED 0.0000
-0.3010 BREAK THE -0.2928
-0.3010 BREAKS THE -0.2928
-0.3010 BREATHING </s> -0.1765
-0.3010 BRIGHT STARSHE'S 0.0000
-0.3010 BROKE THIS 0.0000
-0.7782 BUS ONTO -0.1761
-0.7782 BUS SEPARATED 0.0000
-0.7782 BUS TAKING 0.0000
-1.3802 BUT AT -0.1963
-1.3802 BUT HE -0.2915
-1.3802 BUT HE'S -0.2218
-1.3802 BUT HELD 0.0000
-1.0792 BUT I -0.2672
-1.3802 BUT I'M -0.2041
-1.3802 BUT IF -0.2762
-1.3802 BUT SEVERAL 0.0000
-1.3802 BUT SHE -0.2817
-1.0792 BUT SILVER -0.0110
-0.3010 BUZZED IN -0.2852
-0.3010 BY RANGERS -0.2341
-0.3010 CALLED TO -0.2966
-0.3010 CALMER ONCE -0.1761
-0.3010 CAMPAIGN FOR -0.2711
-0.6021 CAN DO -0.2632
-0.6021 CAN VOTE -0.2553
-0.3010 CANYON </s> -0.1765
-0.3010 CAR ENGINE 0.0000
-0.3010 CAREFULLY YOUR -0.2553
-0.3010 CATCH HIM -0.2688
-0.3010 CATTLE AND -0.2958
-0.6021 CAUGHT HER -0.2881
-0.6021 CAUGHT UP -0.2218
-0.6021 CHAPTER A -0.2752
-0.9031 CHAPTER BLACK -0.1165
-0.9031 CHAPTER SILVER -0.0110
-0.3010 CHEST VIBRATED 0.0000
-0.3010 CHEWING </s> -0.1765
-0.3010 CHOOSE A -0.2840
-0.3010 CHORUS </s> -0.1765
-0.6021 CHOSEN </s> -0.1765
-0.6021 CHOSEN FROM -0.2762
-0.7782 CLEARING </s> -0.1765
-0.7782 CLEARING AHEAD 0.0000
-0.7782 CLEARING AND -0.2958
-0.3010 CLEARLY </s> -0.1765
-0.3010 CLOSED THE -0.2990
-0.3010 COLLAR ACCOMPANIES 0.0000
-0.3010 COME WHEN -0.2430
-0.3010 CONSIDERED HER -0.2881
-0.6021 CONTINUED THE -0.2845
-0.6021 CONTINUED WE -0.2762
-0.3010 COOL NIGHT -0.1761
-0.3010 COOPERATE AND -0.2958
-0.9031 COULD BE -0.2840
-0.9031 COULD BREAK 0.0000
-0.9031 COULD EAT 0.0000
-0.9031 COULD HEAR -0.1761
-0.3010 COULDN'T THINK -0.2218
-0.6021 COUNCIL </s> -0.1765
-1.0000 COUNCIL CLEARING -0.1249
-1.3010 COUNCIL MEETING -0.1761
-1.3010 COUNCIL SILVER -0.0110
-1.3010 COUNCIL WAS -0.2881
-0.3010 COUNCILMAGNUS ASKED 0.0000
-0.3010 CROSS THE -0.2760
-0.3010 CROSSING THE -0.2802
-0.7782 CROWD AND -0.2958
-0.7782 CROWD WAS -0.2747
-0.7782 CROWD YOU -0.2906
-0.3010 DANGEROUS </s> -0.1765
-0.3010 DAY IN -0.2518
-0.3010 DEAD </s> -0.1765
-0.3010 DECISIONS </s> -0.1765
-0.3010 DECLARED I -0.2788
-0.3010 DEEPENED </s> -0.1765
-0.3010 DETERMINED </s> -0.1765
-0.3010 DID NOT -0.2688
-0.6021 DIDN'T LOOK -0.1761
-0.6021 DIDN'T WAIT -0.1761
-0.3010 DIFFERENT AREAS 0.0000
-0.3010 DISAPPOINTED FACE -0.1761
-0.3010 DISTANCE TROTTING 0.0000
-1.0792 DO </s> -0.1765
-1.0792 DO I -0.2788
-1.0792 DO WHAT -0.2730
-1.0792 DO WHATEVER 0.0000
-1.0792 DO WITHOUT 0.0000
-1.0792 DO YOU -0.2906
-0.3010 DOESN'T HAVE -0.2730
-0.3010 DOING HERE -0.1249
-0.3010 DON'T NEED -0.2553
-0.7782 DOWN </s> -0.1765
-0.7782 DOWN THE -0.2990
-0.7782 DOWN THROUGH 0.0000
-0.3010 DRIVER SWUNG 0.0000
-0.3010 EACH OTHER -0.2218
-0.3010 EARS </s> -0.1765
-0.3010 EASTERN SIDE 0.0000
-0.3010 EASY FOR -0.2863
-0.3010 EAT ME -0.0792
-0.3010 EATING </s> -0.1765
-0.6021 ECHOED ACROSS 0.0000
-0.6021 ECHOED THINLY 0.0000
-0.3010 EERIE HOWL -0.2218
-0.3010 ELECTION THE -0.2949
-0.3010 ELK MEAT 0.0000
-0.3010 ENGINE STARTLED 0.0000
-0.7782 ENOUGH EXPERIENCE 0.0000
-0.4771 ENOUGH TO -0.2875
-0.3010 ESCAPE FROM -0.2762
-0.3010 EVEN WHEN -0.2430
-0.3010 EVENING </s> -0.1765
-0.3010 EVER FELT -0.2218
-0.3010 EVERYONE STOPPED -0.2430
-0.3010 EXPERIENCE TO -0.2875
-0.3010 EXTRA MILE 0.0000
-0.3010 EYE </s> -0.1765
-0.6021 EYES </s> -0.1765
-0.9031 EYES SPARKLING 0.0000
-0.9031 EYES WERE -0.2430
-0.6021 FACE </s> -0.1765
-0.6021 FACE CAUGHT -0.1761
-0.6021 FACED HER -0.2747
-0.6021 FACED THE -0.2990
-0.3010 FADE </s> -0.1765
-0.3010 FAST AS -0.2788
-0.3010 FATHER IS -0.2553
-0.3010 FEELING SICKSHE 0.0000
-0.4771 FEET </s> -0.1765
-0.7782 FEET ON -0.2688
-0.7782 FELT BEFORE -0.2218
-0.7782 FELT CALMER 0.0000
-0.7782 FELT STRONGER -0.1761
-0.3010 FEW WOLVES -0.2688
-0.6021 FINALLY BLACK -0.1165
-0.6021 FINALLY CAUGHT -0.1761
-0.7782 FIND BLACK -0.1165
-0.7782 FIND HIM -0.2688
-0.7782 FIND THE -0.2845
-1.2041 FIRE </s> -0.1765
-1.9031 FIRE AND -0.2906
-1.9031 FIRE ANNOUNCED -0.2218
-1.9031 FIRE ANSWERED 0.0000
-1.9031 FIRE ARRIVED 0.0000
-1.9031 FIRE CONTINUED -0.1761
-1.9031 FIRE COULD -0.2430
-1.9031 FIRE COULDN'T 0.0000
-1.9031 FIRE DID 0.0000
-1.9031 FIRE DIDN'T -0.1761
-1.9031 FIRE FELT -0.2218
-1.9031 FIRE FROM -0.1919
-1.9031 FIRE GASPED -0.1761
-1.9031 FIRE HAD -0.2341
-1.9031 FIRE HOWLED 0.0000
-1.9031 FIRE LAUGHED 0.0000
-1.9031 FIRE LED 0.0000
-1.9031 FIRE LOOKED -0.2553
-1.9031 FIRE NODDED -0.1761
-1.9031 FIRE NOTICED -0.1761
-1.9031 FIRE RACED -0.1761
-1.9031 FIRE RAN 0.0000
-1.9031 FIRE SAID -0.2825
-1.9031 FIRE SHOOK -0.1761
-1.9031 FIRE SPOKE 0.0000
-1.9031 FIRE STOOD -0.2218
-1.9031 FIRE STOPPED -0.2430
-1.9031 FIRE THOUGHT -0.1761
-1.9031 FIRE TOLD -0.2553
-1.6021 FIRE TURNED -0.1249
-1.9031 FIRE WARNED 0.0000
-1.6021 FIRE WAS -0.2747
-1.6021 FIRE YOU -0.2688
-0.3010 FIRE'S CHEST 0.0000
-0.3010 FOLLOW THE -0.2928
-0.6021 FOOD </s> -0.1765
-0.9031 FOOD FROM -0.2762
-0.9031 FOOD OUT -0.1761
-1.1761 FOR BLACK -0.1165
-1.4771 FOR HER -0.2881
-1.1761 FOR LEADER -0.2374
-1.4771 FOR LITTLE -0.0669
-1.4771 FOR ME -0.0792
-1.4771 FOR SILVER -0.0110
-1.4771 FOR SURVIVAL 0.0000
-1.0000 FOR THE -0.2760
-1.4771 FOR THEM -0.1549
-1.4771 FOR US -0.2430
-1.4771 FOR WINTER 0.0000
-0.3010 FOREST </s> -0.1765
-0.3010 FORWARD TO -0.2966
-0.6021 FOUND HIM -0.1549
-0.6021 FOUND YOU -0.2906
-0.6021 FOUR OF -0.1568
-0.6021 FOUR WOLF -0.2863
-0.3010 FREEDOMS TOO -0.1761
-0.3010 FRIENDLY </s> -0.1765
-1.2553 FROM A -0.2926
-1.2553 FROM HOME 0.0000
-1.2553 FROM MOLLIE'S 0.0000
-1.2553 FROM ONE -0.0792
-0.6532 FROM THE -0.2629
-1.2553 FROM THEM -0.1549
-0.6021 FRONT </s> -0.1765
-0.6021 FRONT OF -0.2817
-0.9031 FROST LOOKED -0.2553
-0.9031 FROST SHOOK -0.1761
-0.9031 FROST WAS -0.2881
-0.9031 FROST WASN'T 0.0000
-0.3010 FULL OF -0.2915
-0.3010 FUR </s> -0.1765
-0.6021 GASPED AND -0.2958
-0.6021 GASPED WHEN -0.2430
-0.3010 GENTLY NUZZLED 0.0000
-0.3010 GET INVOLVED 0.0000
-0.3010 GETTING READY 0.0000
-0.3010 GLANCED AT -0.2688
-0.3010 GLARED AT -0.1963
-0.6021 GO BACK -0.2218
-0.6021 GO THE -0.2990
-0.3010 GOING TO -0.2966
-0.3010 GONE </s> -0.1765
-0.7782 GOOD ENOUGH -0.1249
-0.7782 GOOD FOOD -0.2430
-0.7782 GOOD JOKE 0.0000
-0.3010 GOODNESS I -0.2900
-0.3010 GRASS </s> -0.1765
-0.3010 GRAY TAIL 0.0000
-0.6021 GREAT HUNTER 0.0000
-0.6021 GREAT LEADER -0.2808
-0.3010 GROWLING IN -0.2156
-0.3010 GRUMBLE </s> -0.1765
-0.3010 GUESS THAT'S -0.1761
-0.8451 HAD BEEN -0.1249
-1.1461 HAD EVER 0.0000
-1.1461 HAD FINALLY -0.1761
-1.1461 HAD GONE 0.0000
-1.1461 HAD HIDDEN 0.0000
-1.1461 HAD TOLD -0.2553
-0.3010 HAND CAN -0.1761
-1.2041 HAVE AN -0.2218
-1.2041 HAVE CLOSED 0.0000
-1.2041 HAVE ENOUGH -0.2218
-1.2041 HAVE MANY -0.1761
-1.2041 HAVE RIGHTS 0.0000
-1.2041 HAVE SEEMED 0.0000
-0.9031 HAVE TO -0.2921
-1.6628 HE CONSIDERED 0.0000
-1.6628 HE COULD -0.2430
-1.6628 HE GLANCED 0.0000
-1.6628 HE HAD -0.2688
-1.6628 HE INSISTED 0.0000
-1.6628 HE LEFT 0.0000
-1.6628 HE LOOKED -0.2553
-1.6628 HE MIGHT -0.1249
-1.6628 HE NEEDS 0.0000
-1.6628 HE PACED 0.0000
-1.6628 HE POINTED 0.0000
-0.9638 HE SAID -0.1996
-1.6628 HE SMILED 0.0000
-1.6628 HE SPRINTED 0.0000
-1.6628 HE TAUGHT -0.1761
-1.1856 HE WAS -0.2319
-1.6628 HE WATCHED 0.0000
-0.7782 HE'S DANGEROUS 0.0000
-0.7782 HE'S NOT -0.2688
-0.7782 HE'S SCARY 0.0000
-0.7782 HEAD AS -0.2553
-0.7782 HEAD BUT -0.2825
-0.7782 HEAD SADLY 0.0000
-0.6021 HEAR HER -0.2747
-0.6021 HEAR MORE 0.0000
-0.3010 HEARD MAGNUS'S 0.0000
-0.3010 HEART WAS -0.2881
-0.3010 HELD HIS -0.2788
-0.3010 HELP </s> -0.1765
-1.5315 HER </s> -0.1765
-1.2304 HER AND -0.2906
-1.5315 HER EARS 0.0000
-1.5315 HER EYE 0.0000
-1.2304 HER HEAD -0.1249
-1.5315 HER HEART 0.0000
-1.5315 HER NOT -0.2688
-1.2304 HER OWN 0.0000
-1.5315 HER PACK -0.2730
-1.5315 HER PUPS -0.2041
-1.5315 HER TO -0.2966
-1.5315 HER VOICE 0.0000
-1.5315 HER WAY -0.2430
-1.5315 HER WORDS -0.1761
-0.4771 HERE </s> -0.1765
-0.7782 HERE MANY -0.1761
-0.3010 HIDDEN SOME -0.2553
-0.3010 HILL AWAY -0.1761
-0.5441 HIM </s> -0.1765
-1.1461 HIM AND -0.2958
-1.1461 HIM BEFORE -0.2632
-1.1461 HIM I'LL -0.1761
-0.8239 HIS EYES -0.0969
-1.3010 HIS FUR 0.0000
-1.3010 HIS HEAD -0.2218
-1.3010 HIS RAGGEDY 0.0000
-1.3010 HIS SCENT 0.0000
-1.3010 HIS SCOWL -0.1761
-1.3010 HIS STARE 0.0000
-1.3010 HIS WAY -0.1761
-0.3010 HISSED AT -0.1963
-0.3010 HOME ONE -0.0792
-0.6021 HOW SILLY 0.0000
-0.6021 HOW WEARY 0.0000
-0.7782 HOWL ECHOED -0.1761
-0.4771 HOWL LONG -0.0969
-0.3010 HOWLED THEN -0.2788
-0.3010 HOWLS ECHOED -0.1761
-0.3010 HUMAN YESTERDAY 0.0000
-0.3010 HUNGRY </s> -0.1765
-0.6021 HUNT ALONE -0.1761
-0.6021 HUNT WITH -0.2730
-0.3010 HUNTER AND -0.2958
-1.6021 I AGREE 0.0000
-1.6021 I AM 0.0000
-1.6021 I COULD -0.2430
-1.6021 I DO -0.2632
-1.6021 I FOUND -0.1761
-1.6021 I GUESS 0.0000
-1.3010 I HAVE -0.2430
-1.6021 I INTEND 0.0000
-1.3010 I KNOW -0.1761
-1.6021 I LIKE -0.2430
-1.6021 I MIGHT -0.1249
-1.6021 I MOVE -0.1761
-1.6021 I ON -0.1963
-1.6021 I TRUST -0.1761
-1.3010 I WANT -0.0792
-1.3010 I WILL -0.1919
-0.6021 I'LL BE -0.2840
-0.6021 I'LL NEED -0.2553
-0.6990 I'M AS -0.2553
-1.0000 I'M GOING 0.0000
-1.0000 I'M LOOKING 0.0000
-1.0000 I'M STRONG -0.2553
-0.3010 I'VE BEEN -0.2218
-1.2553 IF A -0.2840
-1.2553 IF HE -0.2915
-1.2553 IF SOMEONE 0.0000
-1.2553 IF THEY -0.2553
-1.2553 IF WE -0.2762
-0.6532 IF YOU -0.2576
-0.3010 IMPORTANT RULES -0.2632
-1.1461 IN A -0.2840
-1.4472 IN FRONT -0.1761
-1.4472 IN HER -0.2881
-1.4472 IN HIS -0.2788
-1.4472 IN MOLLIE'S 0.0000
-0.7482 IN THE -0.2716
-0.9700 IN YELLOWSTONE -0.1761
-0.3010 INCLUDING KINDNESS 0.0000
-0.3010 INSECTS BUZZED 0.0000
-0.3010 INSISTED </s> -0.1765
-0.3010 INSTANTLY KNEW 0.0000
-0.3010 INTELLIGENT </s> -0.1765
-0.3010 INTEND TO -0.2966
-0.6021 INTO DIFFERENT 0.0000
-0.6021 INTO THE -0.2970
-0.3010 INVOLVED BUT -0.2632
-1.0000 IS A -0.2840
-1.0000 IS ALREADY 0.0000
-1.0000 IS BEST 0.0000
-1.0000 IS CHOSEN -0.1761
-1.0000 IS NOT -0.2688
-0.9031 IT BOYSSCARFACE 0.0000
-0.9031 IT EASY 0.0000
-0.9031 IT QUICK 0.0000
-0.9031 IT WAS -0.2747
-0.3010 JOKE </s> -0.1765
-0.3010 JUST LIKE -0.2430
-0.6021 KIND AND -0.2958
-0.6021 KIND OF -0.2915
-0.3010 KINDNESS AND -0.2958
-0.3010 KNEW THAT -0.2825
-0.9031 KNOW SILVER -0.0110
-0.9031 KNOW THAT -0.2632
-0.9031 KNOW THE -0.2928
-0.9031 KNOW WHERE -0.2218
-0.3010 LAKE </s> -0.1765
-0.3010 LAND </s> -0.1765
-0.3010 LANKY WITH -0.2430
-0.3010 LARGE WOLVES -0.2906
-0.3010 LATE FOR -0.2553
-0.3010 LAUGHED </s> -0.1765
-0.3010 LAY DOWN -0.2218
-0.4260 LEAD THE -0.2845
-0.9031 LEAD USSILVER 0.0000
-0.8653 LEADER </s> -0.1765
-1.3424 LEADER IS -0.2553
-1.3424 LEADER MOONDANCE -0.2041
-1.3424 LEADER MUST -0.1249
-0.8653 LEADER OF -0.1568
-1.3424 LEADER SOON -0.1761
-1.3424 LEADER WHO -0.2218
-0.3010 LEADERS </s> -0.1765
-0.3010 LEAVE THE -0.2802
-0.3010 LEAVES </s> -0.1765
-0.3010 LED HER -0.2881
-0.3010 LEFT THE -0.2802
-0.3010 LIGHTNINGSHAPED MARK 0.0000
-0.9031 LIKE </s> -0.1765
-0.9031 LIKE A -0.2926
-0.9031 LIKE HIM -0.1549
-0.9031 LIKE THE -0.2990
-0.3010 LISTENED </s> -0.1765
-1.0792 LITTLE ONES 0.0000
-0.3802 LITTLE SMUDGE 0.0000
-0.4260 LONG AND -0.2852
-0.9031 LONG WAY -0.2430
-0.6021 LOOK FOR -0.2711
-0.6021 LOOK FRIENDLY 0.0000
-1.0000 LOOKED AROUND -0.2430
-1.0000 LOOKED AWAY -0.2430
-1.0000 LOOKED JUST 0.0000
-1.0000 LOOKED ON -0.2688
-1.0000 LOOKED WORRIED 0.0000
-0.3010 LOOKING FORWARD 0.0000
-0.7782 LOUD AND -0.2958
-0.4771 LOUD IF -0.1919
-0.3010 LOUDEST </s> -0.1765
-0.3010 MADE HER -0.2881
-1.1461 MAGNUS </s> -0.1765
-0.8451 MAGNUS ANNOUNCED -0.1249
-1.1461 MAGNUS CALLED 0.0000
-1.1461 MAGNUS ONE -0.0792
-1.1461 MAGNUS SAID -0.1996
-1.1461 MAGNUS WAITED 0.0000
-0.3010 MAGNUS'S VOICE 0.0000
-0.6021 MAKE DECISIONS 0.0000
-0.6021 MAKE IT -0.2430
-0.3010 MAKING IT -0.2430
-0.6021 MANY SKILLS 0.0000
-0.6021 MANY TIMES 0.0000
-0.3010 MARK IN -0.2852
-0.3010 MATTER HOW -0.1761
-0.3979 ME </s> -0.1765
-1.0000 ME HERE -0.1249
-0.3010 MEAT </s> -0.1765
-0.3010 MEET TOMORROW 0.0000
-0.6021 MEETING </s> -0.1765
-0.6021 MEETING THE -0.2949
-0.4771 MIGHT BE -0.2663
-0.7782 MIGHT HAVE -0.2730
-0.3010 MILE FOR -0.2863
-0.3010 MOLLIE WOLVES -0.2576
-0.3010 MOLLIE'S PACK -0.0969
-0.3010 MOLLIES </s> -0.1765
-1.0000 MOONDANCE AND -0.2958
-0.6990 MOONDANCE SAID -0.1996
-1.0000 MOONDANCE SIGHED -0.1761
-1.0000 MOONDANCE SNARLED 0.0000
-0.3010 MORE </s> -0.1765
-0.3010 MORNING </s> -0.1765
-0.3010 MOST IMPORTANT 0.0000
-0.3010 MOUSE </s> -0.1765
-0.6021 MOVE LIKE -0.2430
-0.6021 MOVE TOWARD -0.2430
-0.4771 MUST BE -0.2663
-0.7782 MUST NEVER -0.1761
-0.7782 MY ANCESTORS 0.0000
-0.7782 MY PACK -0.2109
-0.7782 MY QUESTIONS -0.1761
-0.3010 NARROWED HIS -0.2304
-0.3010 NATIONAL PARK -0.2808
-0.3010 NEARBY PASTURE 0.0000
-0.3010 NECESSARY FOR -0.2863
-1.0000 NEED IN -0.2688
-1.0000 NEED THEIR -0.2430
-1.0000 NEED TIME -0.1761
-1.0000 NEED TO -0.2966
-1.0000 NEED YOUR -0.2553
-0.3010 NEEDED TO -0.2921
-0.3010 NEEDS TO -0.2966
-0.3010 NERVOUS </s> -0.1765
-0.6021 NEVER APPROACH 0.0000
-0.6021 NEVER SAW -0.2553
-0.3010 NEW LEADER -0.1627
-0.9031 NEXT EVENING 0.0000
-0.6021 NEXT MORNING 0.0000
-0.9031 NEXT TO -0.2966
-0.6021 NIGHT AIR 0.0000
-0.6021 NIGHT TO -0.2921
-0.3010 NO MATTER 0.0000
-0.6021 NODDED </s> -0.1765
-0.6021 NODDED THEN -0.2788
-1.1461 NOT AFRAID 0.0000
-1.1461 NOT ALLOWED 0.0000
-1.1461 NOT REACT 0.0000
-1.1461 NOT SCAVENGERS 0.0000
-1.1461 NOT THE -0.2990
-1.1461 NOT TO -0.2966
-1.1461 NOT WISE -0.1761
-0.6021 NOTICED A -0.2840
-0.6021 NOTICED BLACK -0.2752
-0.3010 NOW SHE -0.2817
-0.3010 NUZZLED LITTLE -0.0669
-1.3617 OF A -0.2840
-1.6628 OF ANYONE 0.0000
-1.6628 OF MOLLIE'S 0.0000
-0.5488 OF THE -0.2186
-1.6628 OF THEM -0.2688
-1.6628 OF UNDERSTANDING 0.0000
-1.6628 OF WINGED 0.0000
-1.6628 OF WOLF -0.2863
-1.3617 OF YELLOWSTONE -0.2109
-0.3010 OFF THROUGH 0.0000
-0.3010 OLD EARS 0.0000
-0.6021 OLDER SHE -0.2915
-0.6021 OLDER WOLVES -0.2798
-1.1461 ON </s> -0.1765
-1.1461 ON HIM -0.1549
-0.6690 ON THE -0.2781
-1.1461 ON THEIR -0.2430
-1.1461 ON WHAT -0.2730
-0.6021 ONCE AND -0.2958
-0.6021 ONCE THE -0.2990
-0.3979 ONE OF -0.1434
-1.0000 ONE WITH -0.2730
-0.3010 ONES YOU'RE -0.2218
-0.6021 ONLY BE -0.2840
-0.6021 ONLY ONCE -0.1761
-0.6021 ONTO RANCHERS' 0.0000
-0.6021 ONTO THE -0.2990
-0.3010 OPPONENT </s> -0.1765
-0.7782 OR HOW -0.1761
-0.7782 OR I'LL -0.1761
-0.7782 OR STEAL 0.0000
-0.7782 OTHER HAND 0.0000
-0.7782 OTHER TO -0.2783
-0.7782 OTHER WOLVES -0.2906
-0.6021 OTHERS SNORTED 0.0000
-0.6021 OTHERS TOLD -0.2553
-0.3010 OUR NEW 0.0000
-0.6021 OUT OF -0.1568
-0.6021 OUT THERE -0.2218
-0.3010 OUTSIDE THE -0.2949
-0.3010 OVERWHELMING THAT -0.2632
-0.6021 OWN BREATHING 0.0000
-0.6021 OWN PACK -0.2730
-0.3010 PACED ANXIOUSLY 0.0000
-0.7270 PACK </s> -0.1765
-1.2041 PACK BEGAN 0.0000
-1.2041 PACK BLOCKED 0.0000
-1.2041 PACK LOOKED -0.2553
-1.2041 PACK TO -0.2966
-1.2041 PACK WAS -0.2881
-0.7782 PACKS BEFORE -0.2632
-0.7782 PACKS WERE -0.2430
-0.7782 PACKS WILL -0.2218
-0.7404 PARK </s> -0.1765
-1.3424 PARK BORDER 0.0000
-1.0414 PARK BOUNDARY -0.0969
-1.3424 PARK BY 0.0000
-1.3424 PARK FOR -0.2863
-1.3424 PARK INSTANTLY 0.0000
-1.3424 PARK OR -0.2218
-0.3010 PASSENGERS YELLED 0.0000
-0.3010 PASSING ON -0.2688
-0.3010 PAST THE -0.2802
-0.3010 PASTURE </s> -0.1765
-0.3010 PATH </s> -0.1765
-0.3010 PEOPLE </s> -0.1765
-0.3010 PINE TREES -0.1249
-0.3010 PLACE WHERE -0.2218
-0.3010 PLEASE MAGNUS -0.2688
-0.3010 POINTED PAST 0.0000
-0.3010 POUNCING ON -0.2688
-0.3010 POUNDING BUT -0.2825
-0.3010 PRIDE </s> -0.1765
-0.3010 PROUD TO -0.2921
-0.3010 PULLED HIS -0.2788
-0.3010 PUNISHED </s> -0.1765
-0.6990 PUPS </s> -0.1765
-1.0000 PUPS NODDED -0.1761
-1.0000 PUPS TOLD -0.2553
-1.0000 PUPS YIPPING 0.0000
-0.3010 PUSHED HIS -0.2788
-0.6021 QUESTIONS </s> -0.1765
-0.6021 QUESTIONS MIGHT -0.2218
-0.3010 QUICK OR -0.2218
-0.6021 QUIET AS -0.2788
-0.6021 QUIET THAT -0.2632
-0.3010 RACE EACH 0.0000
-0.6021 RACED ACROSS 0.0000
-0.6021 RACED BACK -0.2218
-0.3010 RADIOTRACKING COLLAR 0.0000
-0.3010 RAGGEDY OLD 0.0000
-0.3010 RAISED HER -0.2881
-0.3010 RAN SWIFTLY 0.0000
-0.3010 RANCHERS SAW -0.2553
-0.3010 RANCHERS' LAND 0.0000
-0.8451 RANGERS </s> -0.1765
-1.1461 RANGERS APPEARED 0.0000
-1.1461 RANGERS FOUND -0.1761
-1.1461 RANGERS HAVE -0.2730
-1.1461 RANGERS SAW -0.2553
-1.1461 RANGERS WILL -0.2762
-0.3010 REACT TO -0.2921
-0.3010 READY TO -0.2966
-0.3010 REALLY NEED -0.2553
-0.3010 REASSURED THEM -0.1549
-0.3010 RELIEF </s> -0.1765
-0.3010 REMOVED FROM -0.1919
-0.3010 REPLACE GRAY 0.0000
-0.3010 RESPONSIBILITIES </s> -0.1765
-0.3010 RESPONSIBLE </s> -0.1765
-0.3010 RIDGE ON -0.1963
-0.3010 RIGHTS AND -0.2958
-0.6021 ROAD IN -0.2852
-0.6021 ROAD TOGETHER -0.1761
-0.3010 RULE COULD -0.2430
-0.6021 RULES </s> -0.1765
-1.0792 RULES AMONG 0.0000
-1.0792 RULES AND -0.2958
-1.0792 RULES ARE -0.2430
-0.6021 RUN AGAINST 0.0000
-0.6021 RUN FOR -0.2711
-0.3010 RUSHED DOWN -0.2218
-0.3010 SAD DAY 0.0000
-0.3010 SADLY </s> -0.1765
-0.6812 SAID </s> -0.1765
-1.3802 SAID AS -0.2553
-1.3802 SAID CAREFULLY 0.0000
-1.3802 SAID HE -0.2915
-1.0792 SAID HOWL -0.1249
-1.3802 SAID MAGNUS -0.2688
-1.3802 SAID SO -0.2430
-0.6021 SAME THING 0.0000
-0.6021 SAME TIME -0.1761
-0.3010 SANG LIKE -0.2430
-1.0000 SAW CROSSING 0.0000
-1.0000 SAW HIM -0.1549
-1.0000 SAW ME -0.2553
-1.0000 SAW THE -0.2949
-1.0000 SAW THEM -0.2688
-0.3010 SAY AND -0.2958
-0.3010 SCARFACE HISSED 0.0000
-0.3010 SCARY </s> -0.1765
-0.3010 SCAVENGERS </s> -0.1765
-0.3010 SCENT WAS -0.2881
-0.6021 SCOWL DEEPENED 0.0000
-0.6021 SCOWL SOFTENED 0.0000
-0.3010 SCOWLING NEXT -0.2430
-0.3010 SEARCHED FOR -0.2863
-0.3010 SEE WHICH 0.0000
-0.3010 SEEMED </s> -0.1765
-0.3010 SEES YOUSILVER 0.0000
-0.3010 SEPARATE INTO -0.1761
-0.3010 SEPARATED SILVER -0.0110
-0.3010 SEVERAL LARGE 0.0000
-0.3010 SHALL MEET 0.0000
-0.3010 SHAME WOULDN'T 0.0000
-0.3010 SHARE RESPONSIBILITIES 0.0000
-1.6628 SHE AND -0.2906
-1.6628 SHE CONTINUED -0.1761
-1.6628 SHE DOESN'T 0.0000
-1.6628 SHE FELT -0.2218
-1.6628 SHE GENTLY 0.0000
-1.0607 SHE HAD -0.1091
-1.6628 SHE MADE 0.0000
-1.3617 SHE NEEDED 0.0000
-1.6628 SHE RACED -0.1761
-1.6628 SHE REASSURED 0.0000
-1.3617 SHE SAW -0.2041
-1.6628 SHE STOPPED -0.2430
-1.6628 SHE THOUGHT -0.1761
-1.6628 SHE TILTED 0.0000
-1.6628 SHE TOLD -0.2553
-1.3617 SHE WAS -0.2747
-1.6628 SHE WHISPERED 0.0000
-0.7782 SHE'S ALSO 0.0000
-0.7782 SHE'S DOING 0.0000
-0.7782 SHE'S NOT -0.2688
-0.3010 SHEEP IN -0.2688
-0.3010 SHOCKED </s> -0.1765
-0.6021 SHOOK HER -0.2747
-0.6021 SHOOK HIS -0.2788
-0.7782 SHOULD REPLACE 0.0000
-0.4771 SHOULD WE -0.2499
-0.3010 SICKSHE ASKED 0.0000
-0.3010 SIDE OF -0.1568
-0.6021 SIGHED AS -0.2553
-0.6021 SIGHED WITH -0.2730
-0.3010 SIGHING AGAIN 0.0000
-0.3010 SILLY MY -0.2218
-0.3123 SILVER FIRE -0.0212
-1.8921 SILVER FIRE'S 0.0000
-0.3010 SKILLS INCLUDING 0.0000
-0.3010 SLOPE TOWARD -0.2430
-0.3010 SMALL BUT -0.2825
-0.3010 SMILED SOFTLY 0.0000
-1.0000 SMUDGE </s> -0.1765
-0.5229 SMUDGE AND -0.2852
-1.0000 SMUDGE WHIMPERED 0.0000
-0.3010 SNAPPED AT -0.1963
-0.3010 SNARLED AND -0.2958
-0.3010 SNEERED </s> -0.1765
-0.3010 SNORTED AS -0.2788
-0.9031 SO LOUD -0.2218
-0.9031 SO QUIET -0.1761
-0.9031 SO THE -0.2908
-0.9031 SO YOU'LL 0.0000
-0.3010 SOFTENED AS -0.2553
-0.3010 SOFTLY AND -0.2958
-1.0000 SOME CATTLE 0.0000
-1.0000 SOME ELK 0.0000
-1.0000 SOME MOLLIE 0.0000
-1.0000 SOME OF -0.1568
-1.0000 SOME RULES -0.2632
-0.3010 SOMEONE SEES 0.0000
-0.6021 SOON </s> -0.1765
-0.6021 SOON SHE -0.2817
-0.3010 SORRY LITTLE -0.2632
-0.4771 SOUND OF -0.2717
-0.7782 SOUND TO -0.2966
-0.3010 SPARKLING WITH -0.2730
-0.3010 SPOKE CLEARLY 0.0000
-0.3010 SPRINTED INTO -0.1761
-0.3010 STARE </s> -0.1765
-0.3010 STARSHE'S A -0.2840
-0.3010 STARTED TO -0.2921
-0.3010 STARTLED THEM -0.1549
-0.3010 STAY WITHIN 0.0000
-0.3010 STEAL FOOD -0.1761
-0.6021 STEPPED BACK -0.2218
-0.6021 STEPPED OUTSIDE 0.0000
-0.6021 STILL NERVOUS 0.0000
-0.6021 STILL WANT -0.0792
-0.7782 STOOD AROUND -0.2430
-0.7782 STOOD SCOWLING 0.0000
-0.7782 STOOD UP -0.2218
-0.9031 STOPPED AND -0.2958
-0.9031 STOPPED CHEWING 0.0000
-0.9031 STOPPED EATING 0.0000
-0.9031 STOPPED YOU -0.2798
-1.0792 STREAK </s> -0.1765
-1.5563 STREAK BEFORE -0.2218
-1.5563 STREAK BREAKS 0.0000
-1.5563 STREAK FACED -0.1761
-1.5563 STREAK GLARED 0.0000
-1.5563 STREAK HE -0.2915
-1.5563 STREAK LOOKED -0.2553
-1.5563 STREAK NARROWED 0.0000
-1.5563 STREAK OF -0.2915
-1.5563 STREAK PUSHED 0.0000
-1.5563 STREAK SNAPPED 0.0000
-1.5563 STREAK STOOD -0.2218
-1.5563 STREAK THAT -0.2825
-1.5563 STREAK TOOK 0.0000
-1.5563 STREAK TURNED -0.2218
-1.5563 STREAK WAS -0.2609
-0.7782 STREAK'S DISAPPOINTED 0.0000
-0.7782 STREAK'S SCOWL -0.1761
-0.7782 STREAK'S WORDS -0.1761
-1.0000 STRONG AND -0.2958
-1.0000 STRONG ENOUGH -0.1249
-0.6990 STRONG LEADER -0.2139
-1.0000 STRONG LEADERS 0.0000
-0.6021 STRONGER </s> -0.1765
-0.6021 STRONGER AND -0.2958
-0.6021 STRONGEST </s> -0.1765
-0.6021 STRONGEST ANIMALS -0.2430
-0.6021 SURE ABOUT -0.1761
-0.6021 SURE IS -0.2553
-0.3010 SURVIVAL </s> -0.1765
-0.3010 SWIFTLY TOWARD -0.1761
-0.3010 SWUNG THE -0.2970
-0.8239 TAIL </s> -0.1765
-1.3010 TAIL ALWAYS -0.2218
-1.3010 TAIL ON -0.1963
-1.3010 TAIL TAUGHT -0.1761
-1.3010 TAIL TOLERATED 0.0000
-1.3010 TAIL WAS -0.2609
-1.0000 TAIL WOULD -0.0969
-0.3010 TAKE US -0.2430
-0.3010 TAKING TOURISTS 0.0000
-0.3010 TALK TO -0.2966
-0.3010 TALL AND -0.2958
-0.6021 TAUGHT </s> -0.1765
-0.6021 TAUGHT US -0.1761
-0.3010 TEAMWORK </s> -0.1765
-0.3010 THAN SHE -0.2615
-0.3010 THANK GOODNESS 0.0000
-1.3802 THAT BROKE 0.0000
-1.3802 THAT GRAY 0.0000
-1.3802 THAT SHOULD -0.2218
-1.0792 THAT SILVER 0.0000
-1.0792 THAT SOME -0.2041
-1.3802 THAT THE -0.2990
-1.3802 THAT WOLF -0.2863
-1.3802 THAT WOULD -0.1761
-1.0792 THAT YOU -0.2688
-0.6021 THAT'S WHAT -0.2730
-0.6021 THAT'S WHY -0.2218
-2.3304 THE AREA 0.0000
-2.3304 THE AUTUMN 0.0000
-2.3304 THE BLACK -0.1165
-2.3304 THE BOUNDARIES 0.0000
-2.3304 THE BOUNDARY -0.2430
-2.0294 THE BUS -0.1249
-2.3304 THE CANYON 0.0000
-2.3304 THE CLEARING -0.2218
-2.3304 THE COOL 0.0000
-1.8533 THE COUNCIL -0.2304
-2.3304 THE COUNCILMAGNUS 0.0000
-1.8533 THE CROWD 0.0000
-2.3304 THE DISTANCE 0.0000
-2.3304 THE DRIVER 0.0000
-2.3304 THE EASTERN 0.0000
-2.3304 THE ELECTION 0.0000
-2.3304 THE EXTRA 0.0000
-2.3304 THE FOREST 0.0000
-2.3304 THE FOUR -0.1761
-2.3304 THE FRONT -0.1761
-2.3304 THE GRASS 0.0000
-2.3304 THE HILL 0.0000
-2.3304 THE HOWLS 0.0000
-2.3304 THE KIND -0.1761
-2.3304 THE LAKE 0.0000
-2.3304 THE LEADER -0.2374
-2.3304 THE LOUDEST 0.0000
-2.3304 THE MEETING -0.1761
-2.0294 THE MOLLIE 0.0000
-2.3304 THE MOLLIES 0.0000
-2.3304 THE MOST 0.0000
-2.3304 THE NEW 0.0000
-1.8533 THE NEXT -0.0969
-2.3304 THE OLDER -0.1761
-2.3304 THE ONE -0.2553
-2.0294 THE OTHER -0.1249
-2.0294 THE OTHERS 0.0000
-2.0294 THE PACKS -0.1249
-1.3304 THE PARK -0.0378
-2.3304 THE PASSENGERS 0.0000
-2.3304 THE PINE 0.0000
-2.3304 THE PUPS -0.2553
-2.3304 THE RANCHERS 0.0000
-1.6314 THE RANGERS -0.0580
-2.3304 THE RIDGE 0.0000
-2.0294 THE ROAD 0.0000
-1.7284 THE RULES -0.1249
-2.0294 THE SAME 0.0000
-2.3304 THE SLOPE 0.0000
-1.8533 THE SOUND 0.0000
-2.3304 THE STRONGEST -0.1761
-2.3304 THE THREE 0.0000
-2.0294 THE TREES 0.0000
-2.3304 THE TWO -0.2218
-2.3304 THE WIND 0.0000
-1.4273 THE WOLF -0.1663
-1.4273 THE WOLVES -0.1829
-1.8533 THE YELLOWSTONE -0.2109
-2.3304 THE YOUNGER 0.0000
-0.9031 THEIR FOOD -0.1761
-0.9031 THEIR PATH 0.0000
-0.9031 THEIR PUPS -0.2041
-0.9031 THEIR WAY -0.1761
-0.5441 THEM </s> -0.1765
-1.1461 THEM MAKE -0.1761
-1.1461 THEM SAID -0.1996
-1.1461 THEM WITH -0.2730
-1.3010 THEN </s> -0.1765
-1.3010 THEN ANOTHER 0.0000
-1.0000 THEN HE -0.2511
-1.3010 THEN LAY 0.0000
-1.3010 THEN RUSHED 0.0000
-1.0000 THEN SHE -0.2817
-1.3010 THEN SILVER -0.0110
-1.3010 THEN TORE 0.0000
-0.7782 THERE </s> -0.1765
-0.7782 THERE FIND -0.2218
-0.7782 THERE WILL -0.2762
-0.7782 THERE'S ALWAYS -0.2218
-0.7782 THERE'S BRIGHT 0.0000
-0.7782 THERE'S GOOD -0.2218
-1.0000 THEY BLAME 0.0000
-1.0000 THEY FIND -0.2218
-1.0000 THEY PULLED 0.0000
-1.0000 THEY WERE -0.2430
-1.0000 THEY WON'T 0.0000
-0.3010 THING </s> -0.1765
-0.7782 THINK ABOUT -0.1761
-0.7782 THINK OF -0.2915
-0.7782 THINK SHE'S -0.2218
-0.3010 THINKING ABOUT -0.2430
-0.3010 THINLY IN -0.2156
-0.3010 THIS RULE 0.0000
-0.6021 THOUGHT </s> -0.1765
-0.6021 THOUGHT ABOUT -0.2430
-0.3010 THREE WOLVES -0.2798
-0.3010 THROUGH THE -0.2949
-0.3010 TILTED HER -0.2747
-0.6021 TIME </s> -0.1765
-0.6021 TIME TO -0.2966
-0.3010 TIMES BEFORE -0.2218
-1.9912 TO A -0.2926
-1.9912 TO ASK 0.0000
-1.9912 TO BE -0.2840
-1.6902 TO BLACK -0.0764
-1.9912 TO CAMPAIGN 0.0000
-1.9912 TO CATCH 0.0000
-1.9912 TO CHOOSE 0.0000
-1.9912 TO COOPERATE 0.0000
-1.9912 TO CROSS 0.0000
-1.9912 TO DO -0.2632
-1.9912 TO ESCAPE 0.0000
-1.9912 TO FADE 0.0000
-1.9912 TO FIND -0.2218
-1.9912 TO FOLLOW 0.0000
-1.9912 TO GET 0.0000
-1.9912 TO GO -0.1761
-1.9912 TO GRUMBLE 0.0000
-1.9912 TO HEAR -0.1761
-1.9912 TO HER -0.2881
-1.9912 TO HIM -0.2688
-1.6902 TO HUNT 0.0000
-1.9912 TO KNOW -0.2430
-1.5141 TO LEAD 0.0000
-1.9912 TO LOOK -0.1761
-1.9912 TO MAGNUS -0.2688
-1.9912 TO MAKE -0.1761
-1.9912 TO MOVE -0.1761
-1.9912 TO REPLACE 0.0000
-1.9912 TO RUN -0.1761
-1.9912 TO SEE 0.0000
-1.9912 TO SEPARATE 0.0000
-1.9912 TO SILVER -0.0110
-1.9912 TO TALK 0.0000
-1.2923 TO THE -0.2845
-1.9912 TO THINK -0.2218
-1.9912 TO TURN -0.1249
-1.6902 TO VOTE -0.2041
-1.9912 TO WORKING 0.0000
-1.9912 TO YOU -0.2906
-1.9912 TO YOUR -0.2553
-0.6021 TOGETHER </s> -0.1765
-0.6021 TOGETHER THE -0.2970
-1.0000 TOLD A -0.2926
-1.0000 TOLD HER -0.2881
-1.0000 TOLD LITTLE -0.0669
-1.0000 TOLD THEM -0.2688
-1.0000 TOLD US -0.1761
-0.3010 TOLERATED THE -0.2990
-0.3010 TOMORROW NIGHT -0.1761
-0.6021 TOO </s> -0.1765
-0.6021 TOO YOUNG -0.2430
-0.3010 TOOK FOOD -0.2430
-0.3010 TORE OFF 0.0000
-0.3010 TOURISTS OUT -0.1761
-0.9031 TOWARD BLACK -0.1165
-0.9031 TOWARD HER -0.2881
-0.6021 TOWARD THE -0.2970
-0.4771 TREES </s> -0.1765
-0.7782 TREES BEFORE -0.2218
-0.3010 TROTTING TOWARD -0.1761
-0.3010 TROUBLE IF -0.2762
-0.3010 TROUBLEMAKER </s> -0.1765
-0.6021 TRUST THAT -0.2632
-0.6021 TRUST YOU -0.2798
-0.3010 TRYING TO -0.2966
-0.3010 TUMBLING AND -0.2958
-0.4771 TURN AROUND -0.1761
-0.7782 TURN WILL -0.2762
-0.7782 TURNED AWAY -0.1761
-0.4771 TURNED TO -0.2736
-0.7782 TWO RACE 0.0000
-0.7782 TWO RANGERS -0.2688
-0.7782 TWO YOUNG -0.2430
-0.3010 UNDERSTANDING </s> -0.1765
-0.3010 UNTIL THEY -0.2553
-0.7782 UP </s> -0.1765
-0.7782 UP THE -0.2990
-0.7782 UP TO -0.2921
-0.9031 US </s> -0.1765
-0.9031 US AWAY -0.2430
-0.6021 US THAT -0.2632
-0.3010 USSILVER FIRE -0.2956
-0.7782 VERY INTELLIGENT 0.0000
-0.4771 VERY YOUNG -0.1761
-0.3010 VIBRATED </s> -0.1765
-0.3010 VOICE </s> -0.1765
-1.0000 VOTE </s> -0.1765
-0.6990 VOTE FOR -0.2553
-1.0000 VOTE ONLY -0.1761
-1.0000 VOTE SILVER -0.0110
-0.3010 VOTED FOR -0.2863
-0.6021 WAIT FOR -0.2863
-0.6021 WAIT TO -0.2966
-0.3010 WAITED FOR -0.2553
-1.0000 WANT A -0.2926
-0.3979 WANT TO -0.2688
-0.3010 WARM AND -0.2958
-0.3010 WARNED </s> -0.1765
-1.0544 WAS A -0.2663
-1.5315 WAS ALWAYS -0.2218
-1.5315 WAS DEAD 0.0000
-1.5315 WAS DETERMINED 0.0000
-1.5315 WAS GOOD -0.2218
-1.5315 WAS OR -0.2218
-1.5315 WAS POUNDING 0.0000
-1.5315 WAS SHOCKED 0.0000
-1.2304 WAS SO -0.1761
-1.5315 WAS STILL -0.1761
-1.5315 WAS STRONGEST -0.1761
-1.5315 WAS SURE -0.1761
-1.5315 WAS TALL 0.0000
-1.5315 WAS THE -0.2990
-0.3010 WASN'T HUNGRY 0.0000
-0.3010 WATCHED THEIR -0.2430
-0.9031 WAY DOWN -0.2218
-0.9031 WAY FROM -0.2762
-0.6021 WAY TO -0.2783
-1.2553 WE DO -0.2632
-1.2553 WE DON'T 0.0000
-1.2553 WE NEED -0.2553
-1.2553 WE REALLY 0.0000
-1.2553 WE SHALL 0.0000
-1.2553 WE STAY 0.0000
-1.2553 WE TRUST -0.1761
-1.2553 WE WANT -0.0792
-1.2553 WE WORK 0.0000
-0.6021 WE'RE PROUD 0.0000
-0.6021 WE'RE THE -0.2990
-0.3010 WEARY HE -0.2717
-0.3010 WELL IF -0.1919
-0.3010 WELLREHEARSED CHORUS 0.0000
-0.9031 WERE ALL -0.2218
-0.9031 WERE GETTING 0.0000
-0.9031 WERE NOT -0.2688
-0.9031 WERE WARM 0.0000
-1.2041 WHAT DO -0.2632
-1.2041 WHAT GRAY 0.0000
-1.2041 WHAT HE -0.2915
-1.2041 WHAT IF -0.2762
-1.2041 WHAT IS -0.2553
-1.2041 WHAT SHE -0.2817
-1.2041 WHAT WE -0.2762
-1.2041 WHAT WILL -0.2762
-0.3010 WHATEVER I -0.2900
-0.9031 WHEN SHE -0.2615
-0.9031 WHEN THERE'S -0.2218
-0.9031 WHEN THEY -0.2553
-0.9031 WHEN YOU'RE -0.2218
-0.7782 WHERE HIS -0.2788
-0.7782 WHERE I -0.2900
-0.7782 WHERE SHE -0.2615
-0.3010 WHICH WOLVES -0.2906
-0.3010 WHIMPERED HE'S -0.2218
-0.3010 WHISPERED TO -0.2966
-0.3010 WHITE FEET 0.0000
-0.7782 WHO IS -0.2553
-0.7782 WHO WAS -0.2881
-0.7782 WHO WILL -0.2762
-0.7782 WHY HE -0.2717
-0.4771 WHY SHOULD -0.1249
-0.3010 WILD ANIMALS -0.1761
-0.7782 WILL BE -0.2285
-1.2553 WILL COME 0.0000
-1.2553 WILL LEAD -0.0969
-1.2553 WILL ONLY -0.1761
-1.2553 WILL RUN -0.1761
-1.2553 WILL TAKE 0.0000
-1.2553 WILL WE -0.2762
-0.3010 WILLING TO -0.2966
-0.3010 WIND AND -0.2958
-0.3010 WINGED INSECTS 0.0000
-0.3010 WINTER </s> -0.1765
-0.6021 WISE </s> -0.1765
-0.6021 WISE KIND -0.1761
-0.9031 WITH A -0.2840
-1.2041 WITH MOONDANCE -0.2553
-1.2041 WITH MY -0.2218
-1.2041 WITH PRIDE 0.0000
-1.2041 WITH RELIEF 0.0000
-1.2041 WITH THE -0.2990
-1.2041 WITH YOU -0.2906
-0.3010 WITHIN THE -0.2990
-0.3010 WITHOUT GRAY 0.0000
-1.1761 WOLF </s> -0.1765
-0.6320 WOLF COUNCIL -0.1139
-1.4771 WOLF IN -0.2156
-1.4771 WOLF PACKS -0.2218
-1.4771 WOLF RESPONSIBLE 0.0000
-1.4771 WOLF SURE -0.1761
-1.4771 WOLF THAT -0.2825
-1.4771 WOLF WITH -0.2430
-1.3222 WOLVES </s> -0.1765
-1.6232 WOLVES AND -0.2958
-1.6232 WOLVES DIDN'T -0.1761
-1.6232 WOLVES FROM -0.2762
-1.6232 WOLVES GASPED -0.1761
-1.6232 WOLVES HAD -0.2688
-1.6232 WOLVES HAVE -0.2730
-1.1461 WOLVES IN -0.2341
-1.3222 WOLVES OF -0.2817
-1.6232 WOLVES SANG 0.0000
-1.3222 WOLVES STARTED 0.0000
-1.6232 WOLVES STOOD -0.2218
-1.6232 WOLVES STOPPED -0.2430
-1.6232 WOLVES VOTED 0.0000
-1.6232 WOLVES WILL -0.2218
-1.6232 WOLVES WOULD -0.2430
-0.3010 WON'T HE -0.2915
-0.3010 WONDERING THE -0.2970
-0.6021 WORDS </s> -0.1765
-0.6021 WORDS BUT -0.2825
-0.3010 WORK TOGETHER -0.1761
-0.3010 WORKING WITH -0.2730
-0.3010 WORRIED </s> -0.1765
-0.6021 WOULD BE -0.2478
-0.9031 WOULD HAVE -0.2430
-0.9031 WOULD SAY 0.0000
-0.3010 WOULDN'T IT -0.2430
-0.3010 YELLED WOLF -0.2711
-0.9031 YELLOWSTONE </s> -0.1765
-1.2041 YELLOWSTONE BOUNDARY -0.1761
-1.2041 YELLOWSTONE NATIONAL 0.0000
-1.2041 YELLOWSTONE NEED -0.2553
-1.2041 YELLOWSTONE WILD 0.0000
-0.9031 YELLOWSTONE WOLVES -0.2798
-0.3010 YESTERDAY </s> -0.1765
-0.3010 YIPPING AND -0.2958
-1.6232 YOU </s> -0.1765
-1.6232 YOU ALL -0.2218
-1.6232 YOU ALMOST 0.0000
-1.6232 YOU ALONE -0.1761
-1.3222 YOU ARE -0.1761
-1.6232 YOU CAN -0.1761
-1.6232 YOU CROSS 0.0000
-1.6232 YOU FEELING 0.0000
-1.6232 YOU KNOW -0.2430
-1.6232 YOU MUST -0.1249
-1.6232 YOU NEVER -0.1761
-1.6232 YOU SILVER -0.0110
-1.6232 YOU STILL -0.1761
-1.6232 YOU THINK -0.2218
-1.3222 YOU TO -0.2829
-1.6232 YOU TWO -0.2218
-1.3222 YOU VOTE -0.2041
-1.6232 YOU WANT -0.2553
-0.3010 YOU'LL HAVE -0.2430
-0.7782 YOU'RE OLDER -0.1761
-0.7782 YOU'RE TOO -0.1761
-0.7782 YOU'RE VERY -0.1249
-0.9031 YOUNG MOONDANCE -0.2041
-0.9031 YOUNG SAID -0.2825
-0.9031 YOUNG TO -0.2921
-0.9031 YOUNG WOLVES -0.2906
-0.3010 YOUNGER PUPS -0.2553
-1.0000 YOUR FATHER 0.0000
-1.0000 YOUR HELP 0.0000
-1.0000 YOUR PACK -0.2109
-1.0000 YOUR PUPS -0.2553
-1.0000 YOUR TURN -0.2218
-0.3010 YOUSILVER FIRE -0.2956

\3-grams:
-2.5682 <s> <s> </s>
-2.2672 <s> <s> A
-2.5682 <s> <s> ALL
-2.0911 <s> <s> AND
-2.5682 <s> <s> ANIMALS
-2.5682 <s> <s> ARE
-2.5682 <s> <s> AS
-2.5682 <s> <s> BECAUSE
-2.5682 <s> <s> BESIDES
-1.4890 <s> <s> BLACK
-1.7231 <s> <s> BUT
-1.9661 <s> <s> CHAPTER
-2.5682 <s> <s> DO
-2.5682 <s> <s> EVEN
-2.5682 <s> <s> EVERYONE
-2.5682 <s> <s> EYES
-2.5682 <s> <s> FINALLY
-1.8692 <s> <s> GRAY
-1.5682 <s> <s> HE
-2.5682 <s> <s> HE'S
-2.5682 <s> <s> HER
-2.2672 <s> <s> HIS
-1.4890 <s> <s> I
-2.0911 <s> <s> I'M
-2.5682 <s> <s> I'VE
-2.2672 <s> <s> IF
-2.5682 <s> <s> IT
-2.2672 <s> <s> LITTLE
-1.9661 <s> <s> MAGNUS
-2.5682 <s> <s> MAKING
-2.5682 <s> <s> MOLLIE'S
-2.2672 <s> <s> MOONDANCE
-2.5682 <s> <s> MY
-2.5682 <s> <s> NOW
-1.5682 <s> <s> SHE
-2.2672 <s> <s> SHE'S
-2.5682 <s> <s> SIGHING
-1.2460 <s> <s> SILVER
-2.5682 <s> <s> SO
-2.5682 <s> <s> SOME
-2.5682 <s> <s> SOON
-2.5682 <s> <s> SORRY
-2.5682 <s> <s> THANK
-2.2672 <s> <s> THAT
-2.5682 <s> <s> THAT'S
-1.2894 <s> <s> THE
-1.7901 <s> <s> THEN
-2.5682 <s> <s> THERE
-2.2672 <s> <s> THERE'S
-2.2672 <s> <s> THEY
-2.5682 <s> <s> TRYING
-2.5682 <s> <s> TUMBLING
-2.5682 <s> <s> TURN
-2.5682 <s> <s> TWO
-2.2672 <s> <s> WE
-2.2672 <s> <s> WE'RE
-2.5682 <s> <s> WELL
-2.0911 <s> <s> WHAT
-2.5682 <s> <s> WHERE
-2.5682 <s> <s> WHO
-2.2672 <s> <s> WHY
-2.5682 <s> <s> WOLVES
-2.0911 <s> <s> YOU
-2.5682 <s> <s> YOU'RE
-2.2672 <s> <s> YOUR
-0.6021 <s> A FEW
-0.6021 <s> A LONG
-0.3010 <s> ALL OF
-0.7782 <s> AND BLACK
-0.7782 <s> AND NO
-0.7782 <s> AND THE
-0.3010 <s> ANIMALS THAT
-0.3010 <s> ARE YOU
-0.3010 <s> AS FOUR
-0.3010 <s> BECAUSE THE
-0.3010 <s> BESIDES SHE
-0.9031 <s> BLACK FROST
-0.4771 <s> BLACK STREAK
-1.3802 <s> BLACK STREAK'S
-1.1461 <s> BUT HE'S
-0.8451 <s> BUT I
-1.1461 <s> BUT IF
-1.1461 <s> BUT SEVERAL
-1.1461 <s> BUT SHE
-1.1461 <s> BUT SILVER
-0.6021 <s> CHAPTER A
-0.9031 <s> CHAPTER BLACK
-0.9031 <s> CHAPTER SILVER
-0.3010 <s> DO I
-0.3010 <s> EVEN WHEN
-0.3010 <s> EVERYONE STOPPED
-0.3010 <s> EYES SPARKLING
-0.3010 <s> FINALLY BLACK
-0.3010 <s> GRAY TAIL
-1.3010 <s> HE GLANCED
-1.3010 <s> HE MIGHT
-1.3010 <s> HE PACED
-1.3010 <s> HE POINTED
-0.8239 <s> HE SAID
-1.3010 <s> HE SMILED
-1.3010 <s> HE SPRINTED
-1.3010 <s> HE WAS
-0.3010 <s> HE'S DANGEROUS
-0.3010 <s> HER HEART
-0.6021 <s> HIS EYES
-0.6021 <s> HIS SCOWL
-1.3802 <s> I COULD
-1.3802 <s> I GUESS
-1.3802 <s> I HAVE
-1.3802 <s> I INTEND
-1.0792 <s> I KNOW
-1.3802 <s> I MIGHT
-1.3802 <s> I MOVE
-1.3802 <s> I ON
-1.3802 <s> I TRUST
-1.3802 <s> I WANT
-1.3802 <s> I WILL
-0.7782 <s> I'M GOING
-0.7782 <s> I'M LOOKING
-0.7782 <s> I'M STRONG
-0.3010 <s> I'VE BEEN
-0.6021 <s> IF WE
-0.6021 <s> IF YOU
-0.3010 <s> IT WAS
-0.3010 <s> LITTLE SMUDGE
-0.6021 <s> MAGNUS ANNOUNCED
-0.9031 <s> MAGNUS CALLED
-0.9031 <s> MAGNUS WAITED
-0.3010 <s> MAKING IT
-0.3010 <s> MOLLIE'S PACK
-0.6021 <s> MOONDANCE SIGHED
-0.6021 <s> MOONDANCE SNARLED
-0.3010 <s> MY ANCESTORS
-0.3010 <s> NOW SHE
-1.3010 <s> SHE DOESN'T
-1.3010 <s> SHE FELT
-1.3010 <s> SHE HAD
-1.3010 <s> SHE NEEDED
-1.3010 <s> SHE RACED
-1.3010 <s> SHE SAW
-1.3010 <s> SHE STOPPED
-1.3010 <s> SHE TILTED
-1.3010 <s> SHE TOLD
-1.3010 <s> SHE WHISPERED
-0.6021 <s> SHE'S ALSO
-0.6021 <s> SHE'S NOT
-0.3010 <s> SIGHING AGAIN
-0.3010 <s> SILVER FIRE
-0.3010 <s> SO THE
-0.3010 <s> SOME OF
-0.3010 <s> SOON SHE
-0.3010 <s> SORRY LITTLE
-0.3010 <s> THANK GOODNESS
-0.6021 <s> THAT WOLF
-0.6021 <s> THAT WOULD
-0.3010 <s> THAT'S WHAT
-1.5798 <s> THE BUS
-1.5798 <s> THE CROWD
-1.5798 <s> THE FOUR
-1.5798 <s> THE HOWLS
-1.5798 <s> THE LEADER
-1.5798 <s> THE MOLLIE
-1.5798 <s> THE NEW
-1.5798 <s> THE NEXT
-1.2788 <s> THE OTHERS
-1.5798 <s> THE PASSENGERS
-1.5798 <s> THE PUPS
-1.2788 <s> THE SOUND
-1.5798 <s> THE THREE
-1.1027 <s> THE WOLVES
-1.5798 <s> THE YELLOWSTONE
-1.0792 <s> THEN ANOTHER
-0.7782 <s> THEN HE
-0.7782 <s> THEN SHE
-1.0792 <s> THEN SILVER
-0.3010 <s> THERE WILL
-0.6021 <s> THERE'S ALWAYS
-0.6021 <s> THERE'S BRIGHT
-0.6021 <s> THEY WERE
-0.6021 <s> THEY WON'T
-0.3010 <s> TRYING TO
-0.3010 <s> TUMBLING AND
-0.3010 <s> TURN AROUND
-0.3010 <s> TWO RANGERS
-0.6021 <s> WE SHALL
-0.6021 <s> WE WANT
-0.6021 <s> WE'RE PROUD
-0.6021 <s> WE'RE THE
-0.3010 <s> WELL IF
-0.7782 <s> WHAT DO
-0.7782 <s> WHAT IF
-0.7782 <s> WHAT WILL
-0.3010 <s> WHERE HIS
-0.3010 <s> WHO WILL
-0.3010 <s> WHY SHOULD
-0.3010 <s> WOLVES HAVE
-0.7782 <s> YOU ALMOST
-0.7782 <s> YOU CAN
-0.7782 <s> YOU TWO
-0.3010 <s> YOU'RE VERY
-0.6021 <s> YOUR FATHER
-0.6021 <s> YOUR TURN
-0.3010 A BLACK LIGHTNINGSHAPED
-0.3010 A BOLD WOLF
-0.3010 A BUS TAKING
-0.3010 A CAR ENGINE
-0.3010 A FEW WOLVES
-0.3010 A GOOD JOKE
-0.6021 A GREAT HUNTER
-0.6021 A GREAT LEADER
-0.3010 A HUMAN YESTERDAY
-0.3010 A LEADER </s>
-0.6021 A LONG AND
-0.6021 A LONG WAY
-0.3010 A MOUSE </s>
-0.3010 A NEARBY PASTURE
-0.3010 A NEW LEADER
-0.3010 A PLACE WHERE
-0.3010 A RADIOTRACKING COLLAR
-0.3010 A SAD DAY
-0.3010 A SHAME WOULDN'T
-0.3010 A STRONG LEADER
-0.3010 A TROUBLEMAKER </s>
-0.3010 A WELLREHEARSED CHORUS
-0.3010 A WISE KIND
-0.6021 A WOLF IN
-0.6021 A WOLF WITH
-0.3010 ABOUT ONE OF
-0.3010 ABOUT THE KIND
-0.6021 ABOUT WHAT SHE
-0.6021 ABOUT WHAT WE
-0.3010 ACCOMPANIES ME </s>
-0.6021 ACROSS THE CANYON
-0.6021 ACROSS THE ROAD
-0.3010 ADULT </s> </s>
-0.3010 AFRAID TO MAKE
-0.3010 AGAIN </s> </s>
-0.3010 AGAINST YOU </s>
-0.3010 AGREE </s> </s>
-0.3010 AHEAD AND HEARD
-0.3010 AIR </s> </s>
-0.3010 ALL </s> </s>
-0.3010 ALL OF THE
-0.3010 ALL STRONG LEADERS
-0.3010 ALLOWED TO SEE
-0.3010 ALMOST STEPPED OUTSIDE
-0.3010 ALONE </s> </s>
-0.3010 ALONE SCARFACE HISSED
-0.3010 ALREADY THERE FIND
-0.3010 ALSO VERY YOUNG
-0.3010 ALWAYS BLACK STREAK
-0.3010 ALWAYS LISTENED </s>
-0.3010 ALWAYS WILLING TO
-0.3010 AM SILVER FIRE
-0.3010 AMONG THE WOLVES
-0.3010 AN ADULT </s>
-0.3010 AN ARROW </s>
-0.3010 AN OPPONENT </s>
-0.3010 ANCESTORS WERE ALL
-0.6021 AND BLACK FROST
-0.6021 AND BLACK STREAK
-0.3010 AND BOLD </s>
-0.3010 AND BOLDER THAN
-0.3010 AND DECLARED I
-0.3010 AND EERIE HOWL
-0.3010 AND FACED THE
-0.3010 AND FREEDOMS TOO
-0.3010 AND FULL OF
-0.3010 AND GO BACK
-0.3010 AND GROWLING IN
-0.3010 AND HEARD MAGNUS'S
-0.3010 AND HER OWN
-0.3010 AND I AGREE
-0.3010 AND I'M AS
-0.3010 AND LANKY WITH
-0.3010 AND LEAVE THE
-0.3010 AND LOUD IF
-0.3010 AND NARROWED HIS
-0.3010 AND NO MATTER
-0.3010 AND NOTICED A
-0.3010 AND OVERWHELMING THAT
-0.3010 AND POUNCING ON
-0.3010 AND RAISED HER
-0.3010 AND SAID </s>
-0.3010 AND SEARCHED FOR
-0.3010 AND SHARE RESPONSIBILITIES
-0.3010 AND SHEEP IN
-0.3010 AND SIGHED WITH
-0.3010 AND STEPPED BACK
-0.3010 AND STRONG LEADER
-0.3010 AND TEAMWORK </s>
-0.6021 AND THE DRIVER
-0.6021 AND THE WOLF
-0.3010 AND THEN LAY
-0.3010 AND VERY INTELLIGENT
-0.3010 AND WAIT FOR
-0.3010 AND WHITE FEET
-0.3010 AND YOU MUST
-0.3010 ANIMALS IN THE
-0.3010 ANIMALS MUST NEVER
-0.3010 ANIMALS NOT SCAVENGERS
-0.3010 ANIMALS THAT BROKE
-0.3010 ANNOUNCED AT THE
-0.3010 ANNOUNCED TO THE
-0.3010 ANNOUNCED WE NEED
-0.3010 ANOTHER FACE CAUGHT
-0.3010 ANSWERED </s> </s>
-0.3010 ANXIOUSLY AND THEN
-0.3010 ANYONE WHO WAS
-0.3010 APPEARED </s> </s>
-0.3010 APPROACH PEOPLE </s>
-0.3010 ARE NECESSARY FOR
-0.3010 ARE OUR NEW
-0.3010 ARE PASSING ON
-0.3010 ARE YOU FEELING
-0.3010 AREA UNTIL THEY
-0.3010 AREAS OF THE
-0.3010 AROUND AND GO
-0.3010 AROUND AT THE
-0.3010 AROUND HER AND
-0.3010 AROUND PLEASE MAGNUS
-0.3010 ARRIVED IN THE
-0.3010 ARROW </s> </s>
-0.3010 AS A MOUSE
-0.3010 AS AN ARROW
-0.3010 AS FAST AS
-0.3010 AS FOUR OF
-0.6021 AS HE CONSIDERED
-0.6021 AS HE WATCHED
-0.3010 AS IF HE
-0.3010 AS QUIET AS
-0.6021 AS SHE GENTLY
-0.6021 AS SHE THOUGHT
-0.3010 ASK QUESTIONS </s>
-0.3010 ASKED </s> </s>
-0.3010 AT SILVER FIRE
-0.3010 AT SOME CATTLE
-0.7782 AT THE COUNCIL
-0.7782 AT THE SAME
-0.7782 AT THE WOLVES
-0.3010 AUTUMN LEAVES </s>
-0.3010 AWAY </s> </s>
-0.3010 AWAY FROM THE
-0.3010 AWAY SILVER FIRE
-0.3010 BACK </s> </s>
-0.3010 BACK TO YOUR
-0.3010 BACK UP THE
-0.6021 BE A SHAME
-0.6021 BE A STRONG
-0.3010 BE AN ADULT
-0.3010 BE CHOSEN FROM
-0.3010 BE LATE FOR
-0.3010 BE PROUD TO
-0.3010 BE PUNISHED </s>
-0.3010 BE REMOVED FROM
-0.3010 BE SMALL BUT
-0.3010 BE STRONG AND
-0.3010 BE STRONGER </s>
-0.3010 BE TROUBLE IF
-0.3010 BE WILD ANIMALS
-0.3010 BECAUSE THE RANGERS
-0.3010 BEEN HERE MANY
-0.3010 BEEN THINKING ABOUT
-0.3010 BEEN WONDERING THE
-0.3010 BEFORE </s> </s>
-0.3010 BEFORE HE LEFT
-0.3010 BEFORE THE RANGERS
-0.3010 BEFORE THEN </s>
-0.3010 BEGAN TO GRUMBLE
-0.3010 BESIDES SHE CONTINUED
-0.3010 BEST FOR THE
-0.9031 BLACK FROST LOOKED
-0.9031 BLACK FROST SHOOK
-0.9031 BLACK FROST WAS
-0.9031 BLACK FROST WASN'T
-0.3010 BLACK LIGHTNINGSHAPED MARK
-1.0792 BLACK STREAK </s>
-1.5563 BLACK STREAK BEFORE
-1.5563 BLACK STREAK BREAKS
-1.5563 BLACK STREAK FACED
-1.5563 BLACK STREAK GLARED
-1.5563 BLACK STREAK HE
-1.5563 BLACK STREAK LOOKED
-1.5563 BLACK STREAK NARROWED
-1.5563 BLACK STREAK OF
-1.5563 BLACK STREAK PUSHED
-1.5563 BLACK STREAK SNAPPED
-1.5563 BLACK STREAK STOOD
-1.5563 BLACK STREAK THAT
-1.5563 BLACK STREAK TOOK
-1.5563 BLACK STREAK TURNED
-1.5563 BLACK STREAK WAS
-0.7782 BLACK STREAK'S DISAPPOINTED
-0.7782 BLACK STREAK'S SCOWL
-0.7782 BLACK STREAK'S WORDS
-0.3010 BLAME ME </s>
-0.3010 BLOCKED THEIR PATH
-0.3010 BOLD </s> </s>
-0.3010 BOLD WOLF </s>
-0.3010 BOLDER THAN SHE
-0.3010 BORDER </s> </s>
-0.3010 BOUNDARIES WHEN THERE'S
-0.3010 BOUNDARY </s> </s>
-0.3010 BOUNDARY OF THE
-0.3010 BOUNDARY ONTO RANCHERS'
-0.3010 BOYSSCARFACE SNEERED </s>
-0.3010 BREAK THE RULES
-0.3010 BREAKS THE RULES
-0.3010 BREATHING </s> </s>
-0.3010 BRIGHT STARSHE'S A
-0.3010 BROKE THIS RULE
-0.3010 BUS ONTO THE
-0.3010 BUS SEPARATED SILVER
-0.3010 BUS TAKING TOURISTS
-0.3010 BUT AT THE
-0.3010 BUT HE LOOKED
-0.3010 BUT HE'S NOT
-0.3010 BUT HELD HIS
-0.6021 BUT I DO
-0.6021 BUT I WANT
-0.3010 BUT I'M AS
-0.3010 BUT IF SOMEONE
-0.3010 BUT SEVERAL LARGE
-0.3010 BUT SHE WAS
-0.3010 BUT SILVER FIRE
-0.3010 BUZZED IN HER
-0.3010 BY RANGERS </s>
-0.3010 CALLED TO SILVER
-0.3010 CALMER ONCE THE
-0.3010 CAMPAIGN FOR LEADER
-0.3010 CAN DO WHATEVER
-0.3010 CAN VOTE ONLY
-0.3010 CANYON </s> </s>
-0.3010 CAR ENGINE STARTLED
-0.3010 CAREFULLY YOUR PUPS
-0.3010 CATCH HIM BEFORE
-0.3010 CATTLE AND SHEEP
-0.3010 CAUGHT HER EYE
-0.3010 CAUGHT UP TO
-0.6021 CHAPTER A NEW
-0.6021 CHAPTER A SAD
-0.3010 CHAPTER BLACK STREAK
-0.3010 CHAPTER SILVER FIRE
-0.3010 CHEST VIBRATED </s>
-0.3010 CHEWING </s> </s>
-0.3010 CHOOSE A NEW
-0.3010 CHORUS </s> </s>
-0.3010 CHOSEN </s> </s>
-0.3010 CHOSEN FROM ONE
-0.3010 CLEARING </s> </s>
-0.3010 CLEARING AHEAD AND
-0.3010 CLEARING AND SEARCHED
-0.3010 CLEARLY </s> </s>
-0.3010 CLOSED THE AREA
-0.3010 COLLAR ACCOMPANIES ME
-0.3010 COME WHEN YOU'RE
-0.3010 CONSIDERED HER WORDS
-0.3010 CONTINUED THE WOLVES
-0.3010 CONTINUED WE DON'T
-0.3010 COOL NIGHT AIR
-0.3010 COOPERATE AND SHARE
-0.3010 COULD BE REMOVED
-0.3010 COULD BREAK THE
-0.3010 COULD EAT ME
-0.3010 COULD HEAR HER
-0.3010 COULDN'T THINK OF
-0.3010 COUNCIL </s> </s>
-0.6021 COUNCIL CLEARING </s>
-0.6021 COUNCIL CLEARING AHEAD
-0.3010 COUNCIL MEETING THE
-0.3010 COUNCIL SILVER FIRE
-0.3010 COUNCIL WAS DEAD
-0.3010 COUNCILMAGNUS ASKED </s>
-0.6021 CROSS THE PARK
-0.6021 CROSS THE ROAD
-0.3010 CROSSING THE PARK
-0.3010 CROWD AND RAISED
-0.3010 CROWD WAS SO
-0.3010 CROWD YOU KNOW
-0.3010 DANGEROUS </s> </s>
-0.3010 DAY IN YELLOWSTONE
-0.3010 DEAD </s> </s>
-0.3010 DECISIONS </s> </s>
-0.3010 DECLARED I WILL
-0.3010 DEEPENED </s> </s>
-0.3010 DETERMINED </s> </s>
-0.3010 DID NOT REACT
-0.3010 DIDN'T LOOK FRIENDLY
-0.3010 DIDN'T WAIT TO
-0.3010 DIFFERENT AREAS OF
-0.3010 DISAPPOINTED FACE </s>
-0.3010 DISTANCE TROTTING TOWARD
-0.3010 DO </s> </s>
-0.3010 DO I HAVE
-0.3010 DO WHAT IS
-0.3010 DO WHATEVER I
-0.3010 DO WITHOUT GRAY
-0.3010 DO YOU THINK
-0.3010 DOESN'T HAVE ENOUGH
-0.3010 DOING HERE </s>
-0.3010 DON'T NEED THEIR
-0.3010 DOWN </s> </s>
-0.3010 DOWN THE SLOPE
-0.3010 DOWN THROUGH THE
-0.3010 DRIVER SWUNG THE
-0.3010 EACH OTHER TO
-0.3010 EARS </s> </s>
-0.3010 EASTERN SIDE OF
-0.3010 EASY FOR HER
-0.3010 EAT ME </s>
-0.3010 EATING </s> </s>
-0.3010 ECHOED ACROSS THE
-0.3010 ECHOED THINLY IN
-0.3010 EERIE HOWL ECHOED
-0.3010 ELECTION THE NEXT
-0.3010 ELK MEAT </s>
-0.3010 ENGINE STARTLED THEM
-0.3010 ENOUGH EXPERIENCE TO
-0.6021 ENOUGH TO HUNT
-0.6021 ENOUGH TO REPLACE
-0.3010 ESCAPE FROM THEM
-0.3010 EVEN WHEN THEY
-0.3010 EVENING </s> </s>
-0.3010 EVER FELT BEFORE
-0.3010 EVERYONE STOPPED EATING
-0.3010 EXPERIENCE TO LEAD
-0.3010 EXTRA MILE FOR
-0.3010 EYE </s> </s>
-0.3010 EYES </s> </s>
-0.3010 EYES SPARKLING WITH
-0.3010 EYES WERE WARM
-0.3010 FACE </s> </s>
-0.3010 FACE CAUGHT HER
-0.3010 FACED HER AND
-0.3010 FACED THE FOREST
-0.3010 FADE </s> </s>
-0.3010 FAST AS AN
-0.3010 FATHER IS ALREADY
-0.3010 FEELING SICKSHE ASKED
-0.3010 FEET </s> </s>
-0.3010 FEET ON THEIR
-0.3010 FELT BEFORE </s>
-0.3010 FELT CALMER ONCE
-0.3010 FELT STRONGER AND
-0.3010 FEW WOLVES IN
-0.3010 FINALLY BLACK STREAK
-0.3010 FINALLY CAUGHT UP
-0.3010 FIND BLACK STREAK
-0.3010 FIND HIM AND
-0.3010 FIND THE WOLF
-0.3010 FIRE </s> </s>
-0.3010 FIRE AND THE
-0.3010 FIRE ANNOUNCED AT
-0.3010 FIRE ANSWERED </s>
-0.3010 FIRE ARRIVED IN
-0.3010 FIRE CONTINUED THE
-0.3010 FIRE COULD HEAR
-0.3010 FIRE COULDN'T THINK
-0.3010 FIRE DID NOT
-0.3010 FIRE DIDN'T WAIT
-0.3010 FIRE FELT CALMER
-0.3010 FIRE FROM THE
-0.3010 FIRE GASPED WHEN
-0.3010 FIRE HAD BEEN
-0.3010 FIRE HOWLED THEN
-0.3010 FIRE LAUGHED </s>
-0.3010 FIRE LED HER
-0.3010 FIRE LOOKED AROUND
-0.3010 FIRE NODDED </s>
-0.3010 FIRE NOTICED BLACK
-0.3010 FIRE RACED ACROSS
-0.3010 FIRE RAN SWIFTLY
-0.3010 FIRE SAID AS
-0.3010 FIRE SHOOK HER
-0.3010 FIRE SPOKE CLEARLY
-0.3010 FIRE STOOD UP
-0.3010 FIRE STOPPED CHEWING
-0.3010 FIRE THOUGHT ABOUT
-0.3010 FIRE TOLD LITTLE
-0.3010 FIRE TURNED TO
-0.3010 FIRE WARNED </s>
-0.6021 FIRE WAS DETERMINED
-0.6021 FIRE WAS SHOCKED
-0.6021 FIRE YOU ARE
-0.6021 FIRE YOU NEVER
-0.3010 FIRE'S CHEST VIBRATED
-0.3010 FOLLOW THE RULES
-0.3010 FOOD </s> </s>
-0.3010 FOOD FROM A
-0.3010 FOOD OUT THERE
-0.3010 FOR BLACK STREAK
-0.3010 FOR HER TO
-0.3010 FOR LEADER OF
-0.3010 FOR LITTLE SMUDGE
-0.3010 FOR ME </s>
-0.3010 FOR SILVER FIRE
-0.3010 FOR SURVIVAL </s>
-0.7782 FOR THE MEETING
-0.7782 FOR THE SOUND
-0.7782 FOR THE WOLVES
-0.3010 FOR THEM </s>
-0.3010 FOR US </s>
-0.3010 FOR WINTER </s>
-0.3010 FOREST </s> </s>
-0.3010 FORWARD TO WORKING
-0.3010 FOUND HIM </s>
-0.3010 FOUND YOU SILVER
-0.3010 FOUR OF THE
-0.3010 FOUR WOLF PACKS
-0.3010 FREEDOMS TOO </s>
-0.3010 FRIENDLY </s> </s>
-0.3010 FROM A HUMAN
-0.3010 FROM HOME ONE
-0.3010 FROM MOLLIE'S PACK
-0.3010 FROM ONE OF
-0.9031 FROM THE MOLLIES
-0.9031 FROM THE OTHER
-0.9031 FROM THE PARK
-0.9031 FROM THE RANGERS
-0.3010 FROM THEM </s>
-0.3010 FRONT </s> </s>
-0.3010 FRONT OF A
-0.3010 FROST LOOKED JUST
-0.3010 FROST SHOOK HIS
-0.3010 FROST WAS TALL
-0.3010 FROST WASN'T HUNGRY
-0.3010 FULL OF UNDERSTANDING
-0.3010 FUR </s> </s>
-0.3010 GASPED AND STEPPED
-0.3010 GASPED WHEN SHE
-0.3010 GENTLY NUZZLED LITTLE
-0.3010 GET INVOLVED BUT
-0.3010 GETTING READY TO
-0.3010 GLANCED AT SOME
-0.3010 GLARED AT SILVER
-0.3010 GO BACK TO
-0.3010 GO THE EXTRA
-0.3010 GOING TO LOOK
-0.3010 GONE </s> </s>
-0.3010 GOOD ENOUGH TO
-0.3010 GOOD FOOD OUT
-0.3010 GOOD JOKE </s>
-0.3010 GOODNESS I FOUND
-0.3010 GRASS </s> </s>
-0.8239 GRAY TAIL </s>
-1.3010 GRAY TAIL ALWAYS
-1.3010 GRAY TAIL ON
-1.3010 GRAY TAIL TAUGHT
-1.3010 GRAY TAIL TOLERATED
-1.3010 GRAY TAIL WAS
-1.0000 GRAY TAIL WOULD
-0.3010 GREAT HUNTER AND
-0.3010 GREAT LEADER MOONDANCE
-0.3010 GROWLING IN THE
-0.3010 GRUMBLE </s> </s>
-0.3010 GUESS THAT'S WHY
-0.6021 HAD BEEN THINKING
-0.6021 HAD BEEN WONDERING
-0.3010 HAD EVER FELT
-0.3010 HAD FINALLY CAUGHT
-0.3010 HAD GONE </s>
-0.3010 HAD HIDDEN SOME
-0.3010 HAD TOLD A
-0.3010 HAND CAN DO
-0.3010 HAVE AN OPPONENT
-0.3010 HAVE CLOSED THE
-0.3010 HAVE ENOUGH EXPERIENCE
-0.3010 HAVE MANY SKILLS
-0.3010 HAVE RIGHTS AND
-0.3010 HAVE SEEMED </s>
-0.6021 HAVE TO CHOOSE
-0.6021 HAVE TO TURN
-0.3010 HE CONSIDERED HER
-0.3010 HE COULD EAT
-0.3010 HE GLANCED AT
-0.3010 HE HAD TOLD
-0.3010 HE INSISTED </s>
-0.3010 HE LEFT THE
-0.3010 HE LOOKED WORRIED
-0.3010 HE MIGHT BE
-0.3010 HE NEEDS TO
-0.3010 HE PACED ANXIOUSLY
-0.3010 HE POINTED PAST
-1.0000 HE SAID CAREFULLY
-1.0000 HE SAID HE
-0.6990 HE SAID HOWL
-1.0000 HE SAID SO
-0.3010 HE SMILED SOFTLY
-0.3010 HE SPRINTED INTO
-0.3010 HE TAUGHT </s>
-0.7782 HE WAS A
-0.7782 HE WAS ALWAYS
-0.7782 HE WAS OR
-0.3010 HE WATCHED THEIR
-0.3010 HE'S DANGEROUS </s>
-0.3010 HE'S NOT WISE
-0.3010 HE'S SCARY </s>
-0.3010 HEAD AS SHE
-0.3010 HEAD BUT HE
-0.3010 HEAD SADLY </s>
-0.3010 HEAR HER OWN
-0.3010 HEAR MORE </s>
-0.3010 HEARD MAGNUS'S VOICE
-0.3010 HEART WAS POUNDING
-0.3010 HELD HIS STARE
-0.3010 HELP </s> </s>
-0.3010 HER </s> </s>
-0.6021 HER AND DECLARED
-0.6021 HER AND HER
-0.3010 HER EARS </s>
-0.3010 HER EYE </s>
-0.6021 HER HEAD AS
-0.6021 HER HEAD SADLY
-0.3010 HER HEART WAS
-0.3010 HER NOT TO
-0.6021 HER OWN BREATHING
-0.6021 HER OWN PACK
-0.3010 HER PACK TO
-0.3010 HER PUPS </s>
-0.3010 HER TO ESCAPE
-0.3010 HER VOICE </s>
-0.3010 HER WAY DOWN
-0.3010 HER WORDS </s>
-0.3010 HERE </s> </s>
-0.3010 HERE MANY TIMES
-0.3010 HIDDEN SOME ELK
-0.3010 HILL AWAY FROM
-0.3010 HIM </s> </s>
-0.3010 HIM AND WAIT
-0.3010 HIM BEFORE HE
-0.3010 HIM I'LL NEED
-0.4771 HIS EYES </s>
-0.7782 HIS EYES WERE
-0.3010 HIS FUR </s>
-0.3010 HIS HEAD BUT
-0.3010 HIS RAGGEDY OLD
-0.3010 HIS SCENT WAS
-0.3010 HIS SCOWL SOFTENED
-0.3010 HIS STARE </s>
-0.3010 HIS WAY TO
-0.3010 HISSED AT SILVER
-0.3010 HOME ONE OF
-0.3010 HOW SILLY MY
-0.3010 HOW WEARY HE
-0.3010 HOWL ECHOED ACROSS
-0.3010 HOWL LONG AND
-0.3010 HOWLED THEN RUSHED
-0.3010 HOWLS ECHOED THINLY
-0.3010 HUMAN YESTERDAY </s>
-0.3010 HUNGRY </s> </s>
-0.3010 HUNT ALONE </s>
-0.3010 HUNT WITH MY
-0.3010 HUNTER AND VERY
-0.3010 I AGREE </s>
-0.3010 I AM SILVER
-0.3010 I COULD BREAK
-0.3010 I DO WHAT
-0.3010 I FOUND YOU
-0.3010 I GUESS THAT'S
-0.6021 I HAVE AN
-0.6021 I HAVE MANY
-0.3010 I INTEND TO
-0.6021 I KNOW SILVER
-0.6021 I KNOW WHERE
-0.3010 I LIKE </s>
-0.3010 I MIGHT BE
-0.3010 I MOVE LIKE
-0.3010 I ON THE
-0.3010 I TRUST THAT
-0.3010 I WANT TO
-0.6021 I WILL BE
-0.6021 I WILL RUN
-0.3010 I'LL BE LATE
-0.3010 I'LL NEED YOUR
-0.6021 I'M AS FAST
-0.6021 I'M AS QUIET
-0.3010 I'M GOING TO
-0.3010 I'M LOOKING FORWARD
-0.3010 I'M STRONG ENOUGH
-0.3010 I'VE BEEN HERE
-0.3010 IF A WOLF
-0.3010 IF HE HAD
-0.3010 IF SOMEONE SEES
-0.3010 IF THEY BLAME
-0.3010 IF WE WORK
-0.9031 IF YOU CROSS
-0.6021 IF YOU VOTE
-0.9031 IF YOU WANT
-0.3010 IMPORTANT RULES AMONG
-0.6021 IN A LEADER
-0.6021 IN A NEARBY
-0.3010 IN FRONT OF
-0.3010 IN HER EARS
-0.3010 IN HIS FUR
-0.3010 IN MOLLIE'S PACK
-1.0000 IN THE AUTUMN
-1.0000 IN THE CLEARING
-1.0000 IN THE COOL
-1.0000 IN THE DISTANCE
-1.0000 IN THE PARK
-0.7782 IN YELLOWSTONE </s>
-0.7782 IN YELLOWSTONE NATIONAL
-0.7782 IN YELLOWSTONE WILD
-0.3010 INCLUDING KINDNESS AND
-0.3010 INSECTS BUZZED IN
-0.3010 INSISTED </s> </s>
-0.3010 INSTANTLY KNEW THAT
-0.3010 INTELLIGENT </s> </s>
-0.3010 INTEND TO RUN
-0.3010 INTO DIFFERENT AREAS
-0.3010 INTO THE TREES
-0.3010 INVOLVED BUT SILVER
-0.3010 IS A LONG
-0.3010 IS ALREADY THERE
-0.3010 IS BEST FOR
-0.3010 IS CHOSEN </s>
-0.3010 IS NOT AFRAID
-0.3010 IT BOYSSCARFACE SNEERED
-0.3010 IT EASY FOR
-0.3010 IT QUICK OR
-0.3010 IT WAS SO
-0.3010 JOKE </s> </s>
-0.3010 JUST LIKE HIM
-0.3010 KIND AND STRONG
-0.3010 KIND OF WOLF
-0.3010 KINDNESS AND TEAMWORK
-0.3010 KNEW THAT GRAY
-0.3010 KNOW SILVER FIRE
-0.3010 KNOW THAT YOU
-0.3010 KNOW THE RULES
-0.3010 KNOW WHERE I
-0.3010 LAKE </s> </s>
-0.3010 LAND </s> </s>
-0.3010 LANKY WITH A
-0.3010 LARGE WOLVES FROM
-0.3010 LATE FOR THE
-0.3010 LAUGHED </s> </s>
-0.3010 LAY DOWN </s>
-0.3010 LEAD THE WOLF
-0.3010 LEAD USSILVER FIRE
-0.3010 LEADER </s> </s>
-0.3010 LEADER IS CHOSEN
-0.3010 LEADER MOONDANCE SAID
-0.3010 LEADER MUST BE
-0.3010 LEADER OF THE
-0.3010 LEADER SOON </s>
-0.3010 LEADER WHO IS
-0.3010 LEADERS </s> </s>
-0.3010 LEAVE THE PARK
-0.3010 LEAVES </s> </s>
-0.3010 LED HER PACK
-0.3010 LEFT THE PARK
-0.3010 LIGHTNINGSHAPED MARK IN
-0.3010 LIKE </s> </s>
-0.3010 LIKE A WELLREHEARSED
-0.3010 LIKE HIM </s>
-0.3010 LIKE THE WIND
-0.3010 LISTENED </s> </s>
-0.3010 LITTLE ONES YOU'RE
-1.0000 LITTLE SMUDGE </s>
-0.5229 LITTLE SMUDGE AND
-1.0000 LITTLE SMUDGE WHIMPERED
-0.7782 LONG AND EERIE
-0.4771 LONG AND LOUD
-0.3010 LONG WAY FROM
-0.3010 LOOK FOR BLACK
-0.3010 LOOK FRIENDLY </s>
-0.3010 LOOKED AROUND AT
-0.3010 LOOKED AWAY </s>
-0.3010 LOOKED JUST LIKE
-0.3010 LOOKED ON </s>
-0.3010 LOOKED WORRIED </s>
-0.3010 LOOKING FORWARD TO
-0.3010 LOUD AND OVERWHELMING
-0.3010 LOUD IF YOU
-0.3010 LOUDEST </s> </s>
-0.3010 MADE HER WAY
-0.3010 MAGNUS </s> </s>
-0.6021 MAGNUS ANNOUNCED TO
-0.6021 MAGNUS ANNOUNCED WE
-0.3010 MAGNUS CALLED TO
-0.3010 MAGNUS ONE OF
-0.3010 MAGNUS SAID </s>
-0.3010 MAGNUS WAITED FOR
-0.3010 MAGNUS'S VOICE </s>
-0.3010 MAKE DECISIONS </s>
-0.3010 MAKE IT QUICK
-0.3010 MAKING IT EASY
-0.3010 MANY SKILLS INCLUDING
-0.3010 MANY TIMES BEFORE
-0.3010 MARK IN HIS
-0.3010 MATTER HOW WEARY
-0.3010 ME </s> </s>
-0.3010 ME HERE </s>
-0.3010 MEAT </s> </s>
-0.3010 MEET TOMORROW NIGHT
-0.3010 MEETING </s> </s>
-0.3010 MEETING THE NEXT
-0.6021 MIGHT BE SMALL
-0.6021 MIGHT BE STRONG
-0.3010 MIGHT HAVE SEEMED
-0.3010 MILE FOR US
-0.7782 MOLLIE WOLVES DIDN'T
-0.7782 MOLLIE WOLVES STARTED
-0.7782 MOLLIE WOLVES STOPPED
-0.9031 MOLLIE'S PACK </s>
-0.9031 MOLLIE'S PACK BEGAN
-0.9031 MOLLIE'S PACK BLOCKED
-0.9031 MOLLIE'S PACK WAS
-0.3010 MOLLIES </s> </s>
-0.3010 MOONDANCE AND SIGHED
-0.3010 MOONDANCE SAID </s>
-0.3010 MOONDANCE SIGHED AS
-0.3010 MOONDANCE SNARLED AND
-0.3010 MORE </s> </s>
-0.3010 MORNING </s> </s>
-0.3010 MOST IMPORTANT RULES
-0.3010 MOUSE </s> </s>
-0.3010 MOVE LIKE THE
-0.3010 MOVE TOWARD HER
-0.6021 MUST BE AN
-0.6021 MUST BE CHOSEN
-0.3010 MUST NEVER APPROACH
-0.3010 MY ANCESTORS WERE
-0.3010 MY PACK </s>
-0.3010 MY QUESTIONS MIGHT
-0.3010 NARROWED HIS EYES
-0.3010 NATIONAL PARK INSTANTLY
-0.3010 NEARBY PASTURE </s>
-0.3010 NECESSARY FOR SURVIVAL
-0.3010 NEED IN A
-0.3010 NEED THEIR FOOD
-0.3010 NEED TIME TO
-0.3010 NEED TO COOPERATE
-0.3010 NEED YOUR HELP
-0.6021 NEEDED TO DO
-0.6021 NEEDED TO FIND
-0.3010 NEEDS TO FOLLOW
-0.3010 NERVOUS </s> </s>
-0.3010 NEVER APPROACH PEOPLE
-0.3010 NEVER SAW ME
-0.9031 NEW LEADER </s>
-0.9031 NEW LEADER IS
-0.9031 NEW LEADER MUST
-0.9031 NEW LEADER SOON
-0.3010 NEXT EVENING </s>
-0.3010 NEXT MORNING </s>
-0.3010 NEXT TO MAGNUS
-0.3010 NIGHT AIR </s>
-0.3010 NIGHT TO VOTE
-0.3010 NO MATTER HOW
-0.3010 NODDED </s> </s>
-0.3010 NODDED THEN TORE
-0.3010 NOT AFRAID TO
-0.3010 NOT ALLOWED TO
-0.3010 NOT REACT TO
-0.3010 NOT SCAVENGERS </s>
-0.3010 NOT THE ONE
-0.3010 NOT TO GET
-0.3010 NOT WISE </s>
-0.3010 NOTICED A WOLF
-0.3010 NOTICED BLACK STREAK'S
-0.3010 NOW SHE WAS
-0.3010 NUZZLED LITTLE SMUDGE
-0.6021 OF A BUS
-0.6021 OF A CAR
-0.3010 OF ANYONE WHO
-0.3010 OF MOLLIE'S PACK
-1.4150 OF THE COUNCILMAGNUS
-1.4150 OF THE LAKE
-1.4150 OF THE MOLLIE
-1.4150 OF THE MOST
-1.4150 OF THE OLDER
-1.4150 OF THE PACKS
-0.9379 OF THE PARK
-1.1139 OF THE WOLF
-1.4150 OF THE WOLVES
-1.4150 OF THE YELLOWSTONE
-0.3010 OF THEM SAID
-0.3010 OF UNDERSTANDING </s>
-0.3010 OF WINGED INSECTS
-0.3010 OF WOLF THAT
-0.6021 OF YELLOWSTONE </s>
-0.6021 OF YELLOWSTONE NEED
-0.3010 OFF THROUGH THE
-0.3010 OLD EARS </s>
-0.3010 OLDER SHE REASSURED
-0.3010 OLDER WOLVES </s>
-0.3010 ON </s> </s>
-0.3010 ON HIM </s>
-0.7782 ON THE EASTERN
-0.7782 ON THE OTHER
-0.7782 ON THE WOLF
-0.3010 ON THEIR WAY
-0.3010 ON WHAT HE
-0.3010 ONCE AND YOU
-0.3010 ONCE THE TWO
-0.4260 ONE OF THE
-0.9031 ONE OF THEM
-0.3010 ONE WITH THE
-0.3010 ONES YOU'RE TOO
-0.3010 ONLY BE TROUBLE
-0.3010 ONLY ONCE AND
-0.3010 ONTO RANCHERS' LAND
-0.3010 ONTO THE GRASS
-0.3010 OPPONENT </s> </s>
-0.3010 OR HOW SILLY
-0.3010 OR I'LL BE
-0.3010 OR STEAL FOOD
-0.3010 OTHER HAND CAN
-0.3010 OTHER TO THE
-0.3010 OTHER WOLVES AND
-0.3010 OTHERS SNORTED AS
-0.3010 OTHERS TOLD HER
-0.3010 OUR NEW LEADER
-0.3010 OUT OF THE
-0.3010 OUT THERE </s>
-0.3010 OUTSIDE THE YELLOWSTONE
-0.3010 OVERWHELMING THAT SILVER
-0.3010 OWN BREATHING </s>
-0.3010 OWN PACK LOOKED
-0.3010 PACED ANXIOUSLY AND
-0.3010 PACK </s> </s>
-0.3010 PACK BEGAN TO
-0.3010 PACK BLOCKED THEIR
-0.3010 PACK LOOKED ON
-0.3010 PACK TO A
-0.3010 PACK WAS THE
-0.3010 PACKS BEFORE THEN
-0.3010 PACKS WERE GETTING
-0.3010 PACKS WILL BE
-0.3010 PARK </s> </s>
-0.3010 PARK BORDER </s>
-0.6021 PARK BOUNDARY </s>
-0.6021 PARK BOUNDARY ONTO
-0.3010 PARK BY RANGERS
-0.3010 PARK FOR WINTER
-0.3010 PARK INSTANTLY KNEW
-0.3010 PARK OR STEAL
-0.3010 PASSENGERS YELLED WOLF
-0.3010 PASSING ON WHAT
-0.3010 PAST THE PARK
-0.3010 PASTURE </s> </s>
-0.3010 PATH </s> </s>
-0.3010 PEOPLE </s> </s>
-0.3010 PINE TREES </s>
-0.3010 PLACE WHERE SHE
-0.3010 PLEASE MAGNUS SAID
-0.3010 POINTED PAST THE
-0.3010 POUNCING ON HIM
-0.3010 POUNDING BUT AT
-0.3010 PRIDE </s> </s>
-0.6021 PROUD TO BE
-0.6021 PROUD TO KNOW
-0.3010 PULLED HIS RAGGEDY
-0.3010 PUNISHED </s> </s>
-0.3010 PUPS </s> </s>
-0.3010 PUPS NODDED THEN
-0.3010 PUPS TOLD US
-0.3010 PUPS YIPPING AND
-0.3010 PUSHED HIS WAY
-0.3010 QUESTIONS </s> </s>
-0.3010 QUESTIONS MIGHT HAVE
-0.3010 QUICK OR I'LL
-0.3010 QUIET AS A
-0.3010 QUIET THAT SILVER
-0.3010 RACE EACH OTHER
-0.3010 RACED ACROSS THE
-0.3010 RACED BACK UP
-0.3010 RADIOTRACKING COLLAR ACCOMPANIES
-0.3010 RAGGEDY OLD EARS
-0.3010 RAISED HER VOICE
-0.3010 RAN SWIFTLY TOWARD
-0.3010 RANCHERS SAW CROSSING
-0.3010 RANCHERS' LAND </s>
-0.3010 RANGERS </s> </s>
-0.3010 RANGERS APPEARED </s>
-0.3010 RANGERS FOUND HIM
-0.3010 RANGERS HAVE CLOSED
-0.3010 RANGERS SAW HIM
-0.3010 RANGERS WILL TAKE
-0.3010 REACT TO BLACK
-0.3010 READY TO SEPARATE
-0.3010 REALLY NEED IN
-0.3010 REASSURED THEM </s>
-0.3010 RELIEF </s> </s>
-0.3010 REMOVED FROM THE
-0.3010 REPLACE GRAY TAIL
-0.3010 RESPONSIBILITIES </s> </s>
-0.3010 RESPONSIBLE </s> </s>
-0.3010 RIDGE ON THE
-0.3010 RIGHTS AND FREEDOMS
-0.3010 ROAD IN FRONT
-0.3010 ROAD TOGETHER </s>
-0.3010 RULE COULD BE
-0.3010 RULES </s> </s>
-0.3010 RULES AMONG THE
-0.3010 RULES AND LEAVE
-0.3010 RULES ARE NECESSARY
-0.3010 RUN AGAINST YOU
-0.3010 RUN FOR LEADER
-0.3010 RUSHED DOWN THE
-0.3010 SAD DAY IN
-0.3010 SADLY </s> </s>
-0.3010 SAID </s> </s>
-0.3010 SAID AS SHE
-0.3010 SAID CAREFULLY YOUR
-0.3010 SAID HE COULD
-0.3010 SAID HOWL LONG
-0.3010 SAID MAGNUS ONE
-0.3010 SAID SO YOU'LL
-0.3010 SAME THING </s>
-0.3010 SAME TIME </s>
-0.3010 SANG LIKE A
-0.3010 SAW CROSSING THE
-0.3010 SAW HIM </s>
-0.3010 SAW ME HERE
-0.3010 SAW THE COUNCIL
-0.3010 SAW THEM WITH
-0.3010 SAY AND I
-0.3010 SCARFACE HISSED AT
-0.3010 SCARY </s> </s>
-0.3010 SCAVENGERS </s> </s>
-0.3010 SCENT WAS STRONGEST
-0.3010 SCOWL DEEPENED </s>
-0.3010 SCOWL SOFTENED AS
-0.3010 SCOWLING NEXT TO
-0.3010 SEARCHED FOR LITTLE
-0.3010 SEE WHICH WOLVES
-0.3010 SEEMED </s> </s>
-0.3010 SEES YOUSILVER FIRE
-0.3010 SEPARATE INTO DIFFERENT
-0.3010 SEPARATED SILVER FIRE
-0.3010 SEVERAL LARGE WOLVES
-0.3010 SHALL MEET TOMORROW
-0.3010 SHAME WOULDN'T IT
-0.3010 SHARE RESPONSIBILITIES </s>
-0.3010 SHE AND BLACK
-0.3010 SHE CONTINUED WE
-0.3010 SHE DOESN'T HAVE
-0.3010 SHE FELT STRONGER
-0.3010 SHE GENTLY NUZZLED
-0.9031 SHE HAD BEEN
-0.9031 SHE HAD EVER
-0.9031 SHE HAD FINALLY
-0.9031 SHE HAD HIDDEN
-0.3010 SHE MADE HER
-0.3010 SHE NEEDED TO
-0.3010 SHE RACED BACK
-0.3010 SHE REASSURED THEM
-0.6021 SHE SAW THE
-0.6021 SHE SAW THEM
-0.3010 SHE STOPPED AND
-0.3010 SHE THOUGHT </s>
-0.3010 SHE TILTED HER
-0.3010 SHE TOLD THEM
-0.6021 SHE WAS STILL
-0.6021 SHE WAS SURE
-0.3010 SHE WHISPERED TO
-0.3010 SHE'S ALSO VERY
-0.3010 SHE'S DOING HERE
-0.3010 SHE'S NOT THE
-0.3010 SHEEP IN A
-0.3010 SHOCKED </s> </s>
-0.3010 SHOOK HER HEAD
-0.3010 SHOOK HIS HEAD
-0.3010 SHOULD REPLACE GRAY
-0.6021 SHOULD WE STAY
-0.6021 SHOULD WE TRUST
-0.3010 SICKSHE ASKED </s>
-0.3010 SIDE OF THE
-0.3010 SIGHED AS HE
-0.3010 SIGHED WITH RELIEF
-0.3010 SIGHING AGAIN </s>
-0.3010 SILLY MY QUESTIONS
-1.1818 SILVER FIRE </s>
-1.8808 SILVER FIRE AND
-1.8808 SILVER FIRE ANNOUNCED
-1.8808 SILVER FIRE ANSWERED
-1.8808 SILVER FIRE ARRIVED
-1.8808 SILVER FIRE CONTINUED
-1.8808 SILVER FIRE COULD
-1.8808 SILVER FIRE COULDN'T
-1.8808 SILVER FIRE DID
-1.8808 SILVER FIRE DIDN'T
-1.8808 SILVER FIRE FELT
-1.8808 SILVER FIRE FROM
-1.8808 SILVER FIRE GASPED
-1.8808 SILVER FIRE HAD
-1.8808 SILVER FIRE HOWLED
-1.8808 SILVER FIRE LAUGHED
-1.8808 SILVER FIRE LED
-1.8808 SILVER FIRE LOOKED
-1.8808 SILVER FIRE NODDED
-1.8808 SILVER FIRE NOTICED
-1.8808 SILVER FIRE RACED
-1.8808 SILVER FIRE RAN
-1.8808 SILVER FIRE SAID
-1.8808 SILVER FIRE SHOOK
-1.8808 SILVER FIRE STOOD
-1.8808 SILVER FIRE STOPPED
-1.8808 SILVER FIRE THOUGHT
-1.8808 SILVER FIRE TOLD
-1.5798 SILVER FIRE TURNED
-1.5798 SILVER FIRE WAS
-1.5798 SILVER FIRE YOU
-0.3010 SILVER FIRE'S CHEST
-0.3010 SKILLS INCLUDING KINDNESS
-0.3010 SLOPE TOWARD BLACK
-0.3010 SMALL BUT I'M
-0.3010 SMILED SOFTLY AND
-0.3010 SMUDGE </s> </s>
-0.3010 SMUDGE AND WHITE
-0.3010 SMUDGE WHIMPERED HE'S
-0.3010 SNAPPED AT SILVER
-0.3010 SNARLED AND NARROWED
-0.3010 SNEERED </s> </s>
-0.3010 SNORTED AS IF
-0.3010 SO LOUD AND
-0.3010 SO QUIET THAT
-0.3010 SO THE RANGERS
-0.3010 SO YOU'LL HAVE
-0.3010 SOFTENED AS HE
-0.3010 SOFTLY AND SAID
-0.3010 SOME CATTLE AND
-0.3010 SOME ELK MEAT
-0.3010 SOME MOLLIE WOLVES
-0.3010 SOME OF THE
-0.3010 SOME RULES ARE
-0.3010 SOMEONE SEES YOUSILVER
-0.3010 SOON </s> </s>
-0.3010 SOON SHE SAW
-0.3010 SORRY LITTLE ONES
-0.6021 SOUND OF A
-0.6021 SOUND OF WINGED
-0.3010 SOUND TO FADE
-0.3010 SPARKLING WITH PRIDE
-0.3010 SPOKE CLEARLY </s>
-0.3010 SPRINTED INTO THE
-0.3010 STARE </s> </s>
-0.3010 STARSHE'S A GREAT
-0.6021 STARTED TO CROSS
-0.6021 STARTED TO MOVE
-0.3010 STARTLED THEM </s>
-0.3010 STAY WITHIN THE
-0.3010 STEAL FOOD </s>
-0.3010 STEPPED BACK </s>
-0.3010 STEPPED OUTSIDE THE
-0.3010 STILL NERVOUS </s>
-0.3010 STILL WANT TO
-0.3010 STOOD AROUND HER
-0.3010 STOOD SCOWLING NEXT
-0.3010 STOOD UP </s>
-0.3010 STOPPED AND NOTICED
-0.3010 STOPPED CHEWING </s>
-0.3010 STOPPED EATING </s>
-0.3010 STOPPED YOU TO
-0.3010 STREAK </s> </s>
-0.3010 STREAK BEFORE THE
-0.3010 STREAK BREAKS THE
-0.3010 STREAK FACED HER
-0.3010 STREAK GLARED AT
-0.3010 STREAK HE NEEDS
-0.3010 STREAK LOOKED AWAY
-0.3010 STREAK NARROWED HIS
-0.3010 STREAK OF MOLLIE'S
-0.3010 STREAK PUSHED HIS
-0.3010 STREAK SNAPPED AT
-0.3010 STREAK STOOD SCOWLING
-0.3010 STREAK THAT THE
-0.3010 STREAK TOOK FOOD
-0.3010 STREAK TURNED AWAY
-0.3010 STREAK WAS A
-0.3010 STREAK'S DISAPPOINTED FACE
-0.3010 STREAK'S SCOWL DEEPENED
-0.3010 STREAK'S WORDS BUT
-0.3010 STRONG AND BOLD
-0.3010 STRONG ENOUGH TO
-0.6021 STRONG LEADER </s>
-0.6021 STRONG LEADER WHO
-0.3010 STRONG LEADERS </s>
-0.3010 STRONGER </s> </s>
-0.3010 STRONGER AND BOLDER
-0.3010 STRONGEST </s> </s>
-0.3010 STRONGEST ANIMALS IN
-0.3010 SURE ABOUT WHAT
-0.3010 SURE IS A
-0.3010 SURVIVAL </s> </s>
-0.3010 SWIFTLY TOWARD THE
-0.3010 SWUNG THE BUS
-0.3010 TAIL </s> </s>
-0.3010 TAIL ALWAYS LISTENED
-0.3010 TAIL ON THE
-0.3010 TAIL TAUGHT US
-0.3010 TAIL TOLERATED THE
-0.3010 TAIL WAS A
-0.6021 TAIL WOULD BE
-0.6021 TAIL WOULD SAY
-0.3010 TAKE US AWAY
-0.3010 TAKING TOURISTS OUT
-0.3010 TALK TO YOU
-0.3010 TALL AND LANKY
-0.3010 TAUGHT </s> </s>
-0.3010 TAUGHT US THAT
-0.3010 TEAMWORK </s> </s>
-0.3010 THAN SHE HAD
-0.3010 THANK GOODNESS I
-0.3010 THAT BROKE THIS
-0.3010 THAT GRAY TAIL
-0.3010 THAT SHOULD REPLACE
-0.6021 THAT SILVER FIRE
-0.6021 THAT SILVER FIRE'S
-0.6021 THAT SOME MOLLIE
-0.6021 THAT SOME RULES
-0.3010 THAT THE RANCHERS
-0.3010 THAT WOLF SURE
-0.3010 THAT WOULD BE
-0.6021 THAT YOU ARE
-0.6021 THAT YOU STILL
-0.3010 THAT'S WHAT GRAY
-0.3010 THAT'S WHY HE
-0.3010 THE AREA UNTIL
-0.3010 THE AUTUMN LEAVES
-0.3010 THE BLACK STREAK
-0.3010 THE BOUNDARIES WHEN
-0.3010 THE BOUNDARY OF
-0.6021 THE BUS ONTO
-0.6021 THE BUS SEPARATED
-0.3010 THE CANYON </s>
-0.3010 THE CLEARING AND
-0.3010 THE COOL NIGHT
-0.4771 THE COUNCIL CLEARING
-0.7782 THE COUNCIL MEETING
-0.3010 THE COUNCILMAGNUS ASKED
-0.7782 THE CROWD AND
-0.7782 THE CROWD WAS
-0.7782 THE CROWD YOU
-0.3010 THE DISTANCE TROTTING
-0.3010 THE DRIVER SWUNG
-0.3010 THE EASTERN SIDE
-0.3010 THE ELECTION THE
-0.3010 THE EXTRA MILE
-0.3010 THE FOREST </s>
-0.3010 THE FOUR WOLF
-0.3010 THE FRONT </s>
-0.3010 THE GRASS </s>
-0.3010 THE HILL AWAY
-0.3010 THE HOWLS ECHOED
-0.3010 THE KIND OF
-0.3010 THE LAKE </s>
-0.3010 THE LEADER OF
-0.3010 THE LOUDEST </s>
-0.3010 THE MEETING </s>
-0.3010 THE MOLLIE WOLVES
-0.3010 THE MOLLIES </s>
-0.3010 THE MOST IMPORTANT
-0.3010 THE NEW LEADER
-0.7782 THE NEXT EVENING
-0.4771 THE NEXT MORNING
-0.3010 THE OLDER WOLVES
-0.3010 THE ONE WITH
-0.6021 THE OTHER HAND
-0.6021 THE OTHER WOLVES
-0.6021 THE OTHERS SNORTED
-0.6021 THE OTHERS TOLD
-0.6021 THE PACKS BEFORE
-0.6021 THE PACKS WILL
-0.6990 THE PARK </s>
-1.3010 THE PARK BORDER
-1.0000 THE PARK BOUNDARY
-1.3010 THE PARK BY
-1.3010 THE PARK FOR
-1.3010 THE PARK OR
-0.3010 THE PASSENGERS YELLED
-0.3010 THE PINE TREES
-0.3010 THE PUPS NODDED
-0.3010 THE RANCHERS SAW
-1.0000 THE RANGERS </s>
-1.0000 THE RANGERS FOUND
-1.0000 THE RANGERS HAVE
-1.0000 THE RANGERS SAW
-1.0000 THE RANGERS WILL
-0.3010 THE RIDGE ON
-0.6021 THE ROAD IN
-0.6021 THE ROAD TOGETHER
-0.4260 THE RULES </s>
-0.9031 THE RULES AND
-0.6021 THE SAME THING
-0.6021 THE SAME TIME
-0.3010 THE SLOPE TOWARD
-0.4771 THE SOUND OF
-0.7782 THE SOUND TO
-0.3010 THE STRONGEST ANIMALS
-0.3010 THE THREE WOLVES
-0.6021 THE TREES </s>
-0.6021 THE TREES BEFORE
-0.3010 THE TWO YOUNG
-0.3010 THE WIND AND
-0.3590 THE WOLF COUNCIL
-1.2041 THE WOLF RESPONSIBLE
-1.2041 THE WOLVES </s>
-1.2041 THE WOLVES GASPED
-0.9031 THE WOLVES IN
-0.9031 THE WOLVES OF
-1.2041 THE WOLVES SANG
-1.2041 THE WOLVES STOOD
-0.7782 THE YELLOWSTONE BOUNDARY
-0.4771 THE YELLOWSTONE WOLVES
-0.3010 THE YOUNGER PUPS
-0.3010 THEIR FOOD </s>
-0.3010 THEIR PATH </s>
-0.3010 THEIR PUPS </s>
-0.3010 THEIR WAY TO
-0.3010 THEM </s> </s>
-0.3010 THEM MAKE IT
-0.3010 THEM SAID </s>
-0.3010 THEM WITH MOONDANCE
-0.3010 THEN </s> </s>
-0.3010 THEN ANOTHER FACE
-0.3010 THEN HE SAID
-0.3010 THEN LAY DOWN
-0.3010 THEN RUSHED DOWN
-0.6021 THEN SHE AND
-0.6021 THEN SHE MADE
-0.3010 THEN SILVER FIRE
-0.3010 THEN TORE OFF
-0.3010 THERE </s> </s>
-0.3010 THERE FIND HIM
-0.3010 THERE WILL ONLY
-0.3010 THERE'S ALWAYS BLACK
-0.3010 THERE'S BRIGHT STARSHE'S
-0.3010 THERE'S GOOD FOOD
-0.3010 THEY BLAME ME
-0.3010 THEY FIND THE
-0.3010 THEY PULLED HIS
-0.3010 THEY WERE NOT
-0.3010 THEY WON'T HE
-0.3010 THING </s> </s>
-0.3010 THINK ABOUT WHAT
-0.3010 THINK OF ANYONE
-0.3010 THINK SHE'S DOING
-0.3010 THINKING ABOUT THE
-0.3010 THINLY IN THE
-0.3010 THIS RULE COULD
-0.3010 THOUGHT </s> </s>
-0.3010 THOUGHT ABOUT ONE
-0.3010 THREE WOLVES STARTED
-0.6021 THROUGH THE PINE
-0.6021 THROUGH THE TREES
-0.3010 TILTED HER HEAD
-0.3010 TIME </s> </s>
-0.3010 TIME TO THINK
-0.3010 TIMES BEFORE </s>
-0.3010 TO A PLACE
-0.3010 TO ASK QUESTIONS
-0.3010 TO BE WILD
-0.6021 TO BLACK STREAK
-0.6021 TO BLACK STREAK'S
-0.3010 TO CAMPAIGN FOR
-0.3010 TO CATCH HIM
-0.3010 TO CHOOSE A
-0.3010 TO COOPERATE AND
-0.3010 TO CROSS THE
-0.3010 TO DO </s>
-0.3010 TO ESCAPE FROM
-0.3010 TO FADE </s>
-0.3010 TO FIND BLACK
-0.3010 TO FOLLOW THE
-0.3010 TO GET INVOLVED
-0.3010 TO GO THE
-0.3010 TO GRUMBLE </s>
-0.3010 TO HEAR MORE
-0.3010 TO HER PUPS
-0.3010 TO HIM I'LL
-0.6021 TO HUNT ALONE
-0.6021 TO HUNT WITH
-0.3010 TO KNOW THAT
-0.4771 TO LEAD THE
-0.7782 TO LEAD USSILVER
-0.3010 TO LOOK FOR
-0.3010 TO MAGNUS </s>
-0.3010 TO MAKE DECISIONS
-0.3010 TO MOVE TOWARD
-0.3010 TO REPLACE GRAY
-0.3010 TO RUN FOR
-0.3010 TO SEE WHICH
-0.3010 TO SEPARATE INTO
-0.3010 TO SILVER FIRE
-0.3010 TO TALK TO
-1.0000 TO THE COUNCIL
-0.6990 TO THE CROWD
-1.0000 TO THE ELECTION
-1.0000 TO THE FRONT
-0.3010 TO THINK ABOUT
-0.3010 TO TURN AROUND
-0.6021 TO VOTE </s>
-0.6021 TO VOTE SILVER
-0.3010 TO WORKING WITH
-0.3010 TO YOU ALONE
-0.3010 TO YOUR PACK
-0.3010 TOGETHER </s> </s>
-0.3010 TOGETHER THE PACKS
-0.3010 TOLD A GOOD
-0.3010 TOLD HER NOT
-0.3010 TOLD LITTLE SMUDGE
-0.3010 TOLD THEM MAKE
-0.3010 TOLD US THAT
-0.3010 TOLERATED THE YOUNGER
-0.3010 TOMORROW NIGHT TO
-0.3010 TOO </s> </s>
-0.3010 TOO YOUNG TO
-0.3010 TOOK FOOD FROM
-0.3010 TORE OFF THROUGH
-0.3010 TOURISTS OUT OF
-0.3010 TOWARD BLACK STREAK
-0.3010 TOWARD HER </s>
-0.6021 TOWARD THE BOUNDARY
-0.6021 TOWARD THE RIDGE
-0.3010 TREES </s> </s>
-0.3010 TREES BEFORE THE
-0.3010 TROTTING TOWARD THE
-0.3010 TROUBLE IF A
-0.3010 TROUBLEMAKER </s> </s>
-0.3010 TRUST THAT YOU
-0.3010 TRUST YOU TO
-0.3010 TRYING TO CATCH
-0.3010 TUMBLING AND GROWLING
-0.6021 TURN AROUND AND
-0.6021 TURN AROUND PLEASE
-0.3010 TURN WILL COME
-0.3010 TURNED AWAY FROM
-0.6021 TURNED TO HER
-0.6021 TURNED TO THE
-0.3010 TWO RACE EACH
-0.3010 TWO RANGERS APPEARED
-0.3010 TWO YOUNG WOLVES
-0.3010 UNDERSTANDING </s> </s>
-0.3010 UNTIL THEY FIND
-0.3010 UP </s> </s>
-0.3010 UP THE HILL
-0.3010 UP TO BLACK
-0.3010 US </s> </s>
-0.3010 US AWAY SILVER
-0.3010 US THAT SOME
-0.3010 USSILVER FIRE SPOKE
-0.3010 VERY INTELLIGENT </s>
-0.6021 VERY YOUNG MOONDANCE
-0.6021 VERY YOUNG SAID
-0.3010 VIBRATED </s> </s>
-0.3010 VOICE </s> </s>
-0.3010 VOTE </s> </s>
-0.6021 VOTE FOR BLACK
-0.6021 VOTE FOR SILVER
-0.3010 VOTE ONLY ONCE
-0.3010 VOTE SILVER FIRE
-0.3010 VOTED FOR THEM
-0.3010 WAIT FOR ME
-0.3010 WAIT TO HEAR
-0.3010 WAITED FOR THE
-0.3010 WANT A BOLD
-0.9031 WANT TO CAMPAIGN
-0.9031 WANT TO HUNT
-0.9031 WANT TO LEAD
-0.9031 WANT TO TALK
-0.3010 WARM AND FULL
-0.3010 WARNED </s> </s>
-0.7782 WAS A GREAT
-0.7782 WAS A TROUBLEMAKER
-0.7782 WAS A WISE
-0.3010 WAS ALWAYS WILLING
-0.3010 WAS DEAD </s>
-0.3010 WAS DETERMINED </s>
-0.3010 WAS GOOD ENOUGH
-0.3010 WAS OR HOW
-0.3010 WAS POUNDING BUT
-0.3010 WAS SHOCKED </s>
-0.6021 WAS SO LOUD
-0.6021 WAS SO QUIET
-0.3010 WAS STILL NERVOUS
-0.3010 WAS STRONGEST </s>
-0.3010 WAS SURE ABOUT
-0.3010 WAS TALL AND
-0.3010 WAS THE LOUDEST
-0.3010 WASN'T HUNGRY </s>
-0.3010 WATCHED THEIR PUPS
-0.3010 WAY DOWN THROUGH
-0.3010 WAY FROM HOME
-0.3010 WAY TO THE
-0.3010 WE DO WITHOUT
-0.3010 WE DON'T NEED
-0.3010 WE NEED TIME
-0.3010 WE REALLY NEED
-0.3010 WE SHALL MEET
-0.3010 WE STAY WITHIN
-0.3010 WE TRUST YOU
-0.3010 WE WANT TO
-0.3010 WE WORK TOGETHER
-0.3010 WE'RE PROUD TO
-0.3010 WE'RE THE STRONGEST
-0.3010 WEARY HE WAS
-0.3010 WELL IF YOU
-0.3010 WELLREHEARSED CHORUS </s>
-0.3010 WERE ALL STRONG
-0.3010 WERE GETTING READY
-0.3010 WERE NOT ALLOWED
-0.3010 WERE WARM AND
-0.3010 WHAT DO YOU
-0.3010 WHAT GRAY TAIL
-0.3010 WHAT HE TAUGHT
-0.3010 WHAT IF THEY
-0.3010 WHAT IS BEST
-0.3010 WHAT SHE NEEDED
-0.3010 WHAT WE REALLY
-0.3010 WHAT WILL WE
-0.3010 WHATEVER I LIKE
-0.3010 WHEN SHE HAD
-0.3010 WHEN THERE'S GOOD
-0.3010 WHEN THEY PULLED
-0.3010 WHEN YOU'RE OLDER
-0.3010 WHERE HIS SCENT
-0.3010 WHERE I AM
-0.3010 WHERE SHE HAD
-0.3010 WHICH WOLVES VOTED
-0.3010 WHIMPERED HE'S SCARY
-0.3010 WHISPERED TO HIM
-0.4771 WHITE FEET </s>
-0.7782 WHITE FEET ON
-0.3010 WHO IS NOT
-0.3010 WHO WAS GOOD
-0.3010 WHO WILL LEAD
-0.3010 WHY HE WAS
-0.3010 WHY SHOULD WE
-0.6021 WILD ANIMALS MUST
-0.6021 WILD ANIMALS NOT
-0.7782 WILL BE A
-0.7782 WILL BE PUNISHED
-0.7782 WILL BE STRONGER
-0.3010 WILL COME WHEN
-0.3010 WILL LEAD THE
-0.3010 WILL ONLY BE
-0.3010 WILL RUN AGAINST
-0.3010 WILL TAKE US
-0.3010 WILL WE DO
-0.3010 WILLING TO GO
-0.3010 WIND AND I'M
-0.3010 WINGED INSECTS BUZZED
-0.3010 WINTER </s> </s>
-0.3010 WISE </s> </s>
-0.3010 WISE KIND AND
-0.6021 WITH A BLACK
-0.6021 WITH A RADIOTRACKING
-0.3010 WITH MOONDANCE AND
-0.3010 WITH MY PACK
-0.3010 WITH PRIDE </s>
-0.3010 WITH RELIEF </s>
-0.3010 WITH THE BLACK
-0.3010 WITH YOU ALL
-0.3010 WITHIN THE BOUNDARIES
-0.3010 WITHOUT GRAY TAIL
-0.3010 WOLF </s> </s>
-0.4472 WOLF COUNCIL </s>
-1.1461 WOLF COUNCIL SILVER
-1.1461 WOLF COUNCIL WAS
-0.3010 WOLF IN THE
-0.3010 WOLF PACKS WERE
-0.3010 WOLF RESPONSIBLE </s>
-0.3010 WOLF SURE IS
-0.3010 WOLF THAT SHOULD
-0.3010 WOLF WITH A
-0.3010 WOLVES </s> </s>
-0.3010 WOLVES AND FACED
-0.3010 WOLVES DIDN'T LOOK
-0.3010 WOLVES FROM MOLLIE'S
-0.3010 WOLVES GASPED AND
-0.3010 WOLVES HAD GONE
-0.3010 WOLVES HAVE RIGHTS
-0.7782 WOLVES IN MOLLIE'S
-0.4771 WOLVES IN YELLOWSTONE
-0.3010 WOLVES OF YELLOWSTONE
-0.3010 WOLVES SANG LIKE
-0.3010 WOLVES STARTED TO
-0.3010 WOLVES STOOD AROUND
-0.3010 WOLVES STOPPED YOU
-0.3010 WOLVES VOTED FOR
-0.3010 WOLVES WILL BE
-0.3010 WOLVES WOULD HAVE
-0.3010 WON'T HE INSISTED
-0.3010 WONDERING THE SAME
-0.3010 WORDS </s> </s>
-0.3010 WORDS BUT HELD
-0.3010 WORK TOGETHER THE
-0.3010 WORKING WITH YOU
-0.3010 WORRIED </s> </s>
-0.6021 WOULD BE A
-0.6021 WOULD BE PROUD
-0.3010 WOULD HAVE TO
-0.3010 WOULD SAY AND
-0.3010 WOULDN'T IT BOYSSCARFACE
-0.3010 YELLED WOLF </s>
-0.3010 YELLOWSTONE </s> </s>
-0.3010 YELLOWSTONE BOUNDARY </s>
-0.3010 YELLOWSTONE NATIONAL PARK
-0.3010 YELLOWSTONE NEED TO
-0.3010 YELLOWSTONE WILD ANIMALS
-0.6021 YELLOWSTONE WOLVES WILL
-0.6021 YELLOWSTONE WOLVES WOULD
-0.3010 YESTERDAY </s> </s>
-0.3010 YIPPING AND POUNCING
-0.3010 YOU </s> </s>
-0.3010 YOU ALL </s>
-0.3010 YOU ALMOST STEPPED
-0.3010 YOU ALONE SCARFACE
-0.6021 YOU ARE OUR
-0.6021 YOU ARE PASSING
-0.3010 YOU CAN VOTE
-0.3010 YOU CROSS THE
-0.3010 YOU FEELING SICKSHE
-0.3010 YOU KNOW THE
-0.3010 YOU MUST BE
-0.3010 YOU NEVER SAW
-0.3010 YOU SILVER FIRE
-0.3010 YOU STILL WANT
-0.3010 YOU THINK SHE'S
-0.6021 YOU TO ASK
-0.6021 YOU TO LEAD
-0.3010 YOU TWO RACE
-0.3010 YOU VOTE FOR
-0.3010 YOU WANT A
-0.3010 YOU'LL HAVE TO
-0.3010 YOU'RE OLDER SHE
-0.3010 YOU'RE TOO YOUNG
-0.3010 YOU'RE VERY YOUNG
-0.3010 YOUNG MOONDANCE SAID
-0.3010 YOUNG SAID MAGNUS
-0.3010 YOUNG TO VOTE
-0.3010 YOUNG WOLVES HAD
-0.3010 YOUNGER PUPS YIPPING
-0.3010 YOUR FATHER IS
-0.3010 YOUR HELP </s>
-0.3010 YOUR PACK </s>
-0.3010 YOUR PUPS TOLD
-0.3010 YOUR TURN WILL
-0.3010 YOUSILVER FIRE WARNED

\end\
